205 200
补助 0.085214 0.012465 0.180822 -0.152133 -0.001626 -0.191766 -0.062606 0.051609 -0.027800 0.149502 -0.013112 0.160843 -0.164778 -0.251639 0.093239 -0.167033 -0.070123 0.333072 0.020166 -0.074914 -0.084336 0.012874 0.144724 -0.044114 -0.050164 -0.240866 -0.089870 0.011687 0.222805 0.329770 0.046247 -0.483923 -0.284592 0.071434 -0.274614 0.273402 0.141712 0.110674 0.009548 0.099215 0.049754 0.022849 0.113206 -0.269168 0.047608 -0.107238 0.079916 0.055768 0.079892 0.026843 0.196163 0.015537 0.234819 0.208150 -0.065858 -0.077053 0.119474 0.111330 0.031857 -0.314970 0.174889 -0.278444 -0.067873 0.244766 -0.188344 -0.031092 0.189787 -0.159952 -0.011235 -0.017085 0.020380 0.221034 0.091860 -0.013581 -0.195069 0.221378 -0.572422 0.088010 -0.054852 -0.190273 -0.024714 -0.078491 -0.236746 -0.098682 0.087087 0.105892 0.065152 0.058221 0.213462 -0.205803 0.009177 0.029435 0.120460 0.078004 0.074366 0.077943 0.249710 -0.062488 0.038041 -0.080312 0.011622 -0.246577 -0.062108 -0.237225 -0.074432 0.308036 0.130737 -0.044636 -0.102462 0.243413 0.019691 0.108298 -0.204980 -0.181420 0.044479 0.453130 0.262175 -0.400130 0.222822 0.200450 0.066118 0.246347 0.070982 -0.266259 -0.064318 -0.037601 -0.058237 -0.243206 0.054268 0.168475 -0.149337 0.115976 -0.172617 -0.182685 0.027477 0.154670 0.173989 0.084027 -0.171840 -0.177574 -0.117932 0.080476 -0.304772 0.171971 0.059481 0.220294 -0.136764 0.258914 -0.263930 -0.128242 -0.070312 -0.133962 0.051257 -0.007484 0.098414 0.158816 0.348900 -0.184677 -0.182485 -0.098664 -0.069051 -0.111344 0.076947 -0.268656 0.150889 0.282477 0.041178 0.107539 0.265311 0.034333 -0.111740 -0.027357 0.013956 0.006984 -0.020552 -0.139663 0.135975 -0.174683 0.047098 -0.124965 -0.131802 0.197010 0.185918 -0.227170 -0.098251 0.193594 -0.193325 0.164925 0.100978 0.105301 0.158048 0.355710 0.090670 0.097688 0.302211 0.295315 -0.320889 0.057342 0.074382 -0.211214
资金 0.081893 0.009070 0.187120 -0.152317 -0.003630 -0.196822 -0.062940 0.050363 -0.027424 0.152578 -0.009028 0.160473 -0.166164 -0.255514 0.095618 -0.167187 -0.070054 0.336060 0.020857 -0.074721 -0.085513 0.017780 0.150320 -0.043465 -0.054075 -0.242534 -0.088330 0.009353 0.223499 0.335232 0.047510 -0.489314 -0.288622 0.073234 -0.277689 0.273265 0.140687 0.109738 0.007606 0.099479 0.051712 0.025663 0.111699 -0.273093 0.051395 -0.106635 0.082564 0.057046 0.080453 0.025137 0.200343 0.015771 0.235500 0.209813 -0.065460 -0.076985 0.118772 0.109926 0.033250 -0.319428 0.176793 -0.281740 -0.068351 0.246610 -0.188657 -0.032348 0.192866 -0.160371 -0.009337 -0.018741 0.016350 0.223350 0.094919 -0.014294 -0.195826 0.220648 -0.579180 0.089537 -0.058588 -0.193136 -0.022421 -0.076868 -0.241429 -0.099403 0.091049 0.106843 0.064559 0.056337 0.214595 -0.208745 0.008974 0.030796 0.123265 0.076182 0.076017 0.075990 0.253526 -0.064182 0.035148 -0.079919 0.008520 -0.245549 -0.063503 -0.238515 -0.072911 0.312586 0.133177 -0.046253 -0.102586 0.249615 0.016740 0.112698 -0.205225 -0.186370 0.044236 0.458512 0.267678 -0.404396 0.226495 0.200598 0.066437 0.249927 0.070830 -0.269795 -0.066646 -0.037324 -0.058010 -0.245298 0.057928 0.168580 -0.151696 0.117799 -0.173675 -0.179731 0.029088 0.158145 0.175316 0.087620 -0.168845 -0.178439 -0.115812 0.082689 -0.311639 0.175632 0.063855 0.218433 -0.137461 0.261716 -0.265569 -0.134169 -0.067851 -0.136922 0.051866 -0.010056 0.096556 0.157817 0.354260 -0.182731 -0.184242 -0.100393 -0.067705 -0.110899 0.077825 -0.271389 0.153148 0.285462 0.039851 0.105906 0.266979 0.033654 -0.110221 -0.023493 0.014760 0.006274 -0.023097 -0.140542 0.139971 -0.176563 0.044441 -0.126417 -0.131872 0.200790 0.189543 -0.229438 -0.098839 0.195372 -0.199708 0.166148 0.100257 0.108270 0.160046 0.357999 0.091486 0.100249 0.307868 0.298928 -0.324562 0.058254 0.076550 -0.214417
家庭 0.085785 0.011080 0.192393 -0.158247 -0.001163 -0.203279 -0.067571 0.056062 -0.027421 0.158059 -0.010518 0.172105 -0.173105 -0.265553 0.099113 -0.173903 -0.076859 0.351347 0.021727 -0.077239 -0.089282 0.016982 0.158225 -0.049770 -0.054123 -0.258759 -0.094264 0.010482 0.238903 0.345535 0.048343 -0.511515 -0.300756 0.078579 -0.288835 0.284197 0.145688 0.119684 0.010043 0.105865 0.052626 0.025397 0.117419 -0.286010 0.053763 -0.114529 0.088165 0.057014 0.085849 0.029126 0.208542 0.020054 0.248244 0.221808 -0.072490 -0.080962 0.124864 0.118567 0.033826 -0.333338 0.183289 -0.293843 -0.070099 0.259376 -0.200977 -0.034416 0.201436 -0.166108 -0.008463 -0.017623 0.019054 0.228505 0.101009 -0.011619 -0.207747 0.234323 -0.605958 0.090620 -0.057472 -0.198219 -0.025904 -0.080892 -0.254393 -0.108985 0.093238 0.111242 0.067897 0.062289 0.223693 -0.215474 0.009509 0.031841 0.126678 0.081704 0.078094 0.081829 0.266367 -0.066363 0.035422 -0.086190 0.011973 -0.256642 -0.069363 -0.250611 -0.076059 0.329066 0.137608 -0.043616 -0.107783 0.258503 0.019630 0.116819 -0.216697 -0.193643 0.048208 0.476361 0.280841 -0.419764 0.232854 0.212507 0.072337 0.259103 0.075610 -0.281671 -0.066523 -0.037256 -0.063897 -0.257997 0.058038 0.178766 -0.155892 0.122711 -0.181132 -0.190394 0.027948 0.162645 0.186381 0.092905 -0.178376 -0.187504 -0.122128 0.083391 -0.321134 0.184182 0.065927 0.230737 -0.143009 0.273273 -0.279780 -0.139165 -0.074390 -0.141925 0.055919 -0.008617 0.104400 0.164170 0.372437 -0.194370 -0.193403 -0.099369 -0.073734 -0.116514 0.077329 -0.280683 0.156794 0.294492 0.044605 0.112765 0.279997 0.035909 -0.114541 -0.026100 0.017824 0.010059 -0.022591 -0.145989 0.145966 -0.180728 0.046018 -0.130599 -0.139194 0.208473 0.199081 -0.235581 -0.103971 0.205089 -0.208709 0.173260 0.106001 0.115522 0.169434 0.373738 0.094908 0.099626 0.321715 0.312787 -0.340295 0.060424 0.077894 -0.224789
生活 0.062400 0.006402 0.133623 -0.110673 -0.002848 -0.141091 -0.047743 0.036228 -0.018741 0.109846 -0.009063 0.118165 -0.122664 -0.180644 0.068838 -0.120959 -0.050549 0.242490 0.011984 -0.053332 -0.060633 0.009972 0.108397 -0.033001 -0.036188 -0.176556 -0.065870 0.008776 0.160671 0.238656 0.035716 -0.348422 -0.208618 0.053641 -0.196021 0.197189 0.102583 0.082272 0.009135 0.071300 0.036627 0.019489 0.077775 -0.195760 0.036063 -0.074956 0.057355 0.039725 0.060163 0.019069 0.145121 0.013102 0.171583 0.151304 -0.049103 -0.053333 0.087221 0.081842 0.021967 -0.230403 0.124196 -0.202035 -0.050023 0.174970 -0.138018 -0.021150 0.138367 -0.117175 -0.008784 -0.011331 0.012708 0.160508 0.067210 -0.009271 -0.142760 0.160771 -0.416590 0.064507 -0.042202 -0.136477 -0.019057 -0.057396 -0.171484 -0.071797 0.064612 0.075895 0.047224 0.041307 0.155477 -0.146615 0.008384 0.023590 0.087112 0.053753 0.051633 0.056221 0.182961 -0.043708 0.024288 -0.056917 0.009597 -0.175864 -0.046328 -0.171828 -0.054412 0.227143 0.093509 -0.033359 -0.072130 0.178023 0.015008 0.079023 -0.147381 -0.131239 0.033186 0.326312 0.193201 -0.289010 0.161718 0.145119 0.051789 0.180190 0.053286 -0.190537 -0.048055 -0.025075 -0.041901 -0.178642 0.042496 0.123810 -0.110355 0.086626 -0.123924 -0.130704 0.018431 0.113003 0.126945 0.061406 -0.123056 -0.126443 -0.084612 0.060790 -0.223447 0.123857 0.045843 0.160242 -0.096607 0.191064 -0.194242 -0.096912 -0.052340 -0.097418 0.036182 -0.006664 0.071282 0.112838 0.255545 -0.135654 -0.130886 -0.071347 -0.050046 -0.080269 0.055893 -0.195794 0.107437 0.202537 0.028080 0.075025 0.192658 0.023581 -0.081288 -0.017540 0.009552 0.003621 -0.018661 -0.099991 0.098934 -0.127983 0.033435 -0.091560 -0.096895 0.143423 0.139093 -0.164864 -0.073437 0.142257 -0.140809 0.121964 0.074336 0.076451 0.114669 0.258318 0.068432 0.072302 0.221404 0.211841 -0.234833 0.041833 0.052292 -0.151361
困难 0.083460 0.009480 0.181606 -0.150601 -0.000288 -0.190351 -0.061426 0.047565 -0.023171 0.147162 -0.012790 0.156304 -0.160680 -0.244143 0.092702 -0.166320 -0.069402 0.324003 0.019099 -0.071621 -0.084608 0.012894 0.144410 -0.046203 -0.052153 -0.239446 -0.087297 0.008472 0.220919 0.323498 0.044631 -0.471730 -0.280044 0.067983 -0.264842 0.266024 0.137675 0.106711 0.008807 0.098874 0.049477 0.024567 0.105976 -0.266741 0.051181 -0.106884 0.081122 0.052118 0.080022 0.025013 0.196197 0.014473 0.231088 0.200720 -0.067782 -0.075764 0.117005 0.106343 0.031339 -0.309168 0.171625 -0.270219 -0.066804 0.237504 -0.183878 -0.030530 0.185028 -0.154807 -0.009228 -0.015842 0.019787 0.211779 0.094240 -0.013974 -0.189741 0.213007 -0.560068 0.087932 -0.056269 -0.184393 -0.024717 -0.075709 -0.232546 -0.097768 0.084038 0.101291 0.061131 0.056973 0.206982 -0.202312 0.009447 0.027749 0.120885 0.075968 0.072397 0.077853 0.248563 -0.060144 0.035991 -0.076481 0.010699 -0.240176 -0.060291 -0.232991 -0.071290 0.303323 0.129397 -0.042568 -0.096240 0.241483 0.016932 0.107123 -0.198281 -0.179882 0.043112 0.442966 0.258494 -0.392127 0.215785 0.195668 0.065702 0.243024 0.070954 -0.262735 -0.062311 -0.036131 -0.056904 -0.238348 0.053729 0.163170 -0.146125 0.113766 -0.166703 -0.175001 0.027730 0.150141 0.170298 0.085075 -0.167479 -0.174233 -0.113605 0.077851 -0.300804 0.168962 0.057652 0.214551 -0.134016 0.256352 -0.260875 -0.129671 -0.066004 -0.132440 0.049195 -0.009142 0.097846 0.153588 0.346075 -0.178418 -0.179170 -0.092004 -0.069601 -0.110049 0.075718 -0.263912 0.148314 0.276445 0.041661 0.103366 0.257248 0.032281 -0.108579 -0.028002 0.013288 0.008416 -0.021200 -0.132553 0.137009 -0.170429 0.045614 -0.120955 -0.127426 0.191879 0.185659 -0.219664 -0.094581 0.190167 -0.193299 0.163742 0.094984 0.107281 0.155205 0.347120 0.091438 0.096910 0.297862 0.287964 -0.316162 0.057937 0.074758 -0.205043
残疾人 0.070477 0.007424 0.158538 -0.132733 -0.000801 -0.167014 -0.054687 0.046319 -0.022794 0.128796 -0.011414 0.138761 -0.143175 -0.220179 0.081831 -0.147168 -0.060767 0.290923 0.015246 -0.063868 -0.074969 0.010614 0.126090 -0.039935 -0.047262 -0.211633 -0.079465 0.010751 0.194148 0.287695 0.042253 -0.421343 -0.250601 0.064499 -0.237671 0.237701 0.121314 0.098116 0.010170 0.087176 0.043525 0.020948 0.097780 -0.235594 0.042033 -0.089923 0.070382 0.050508 0.070568 0.024543 0.175060 0.013060 0.204493 0.182943 -0.059300 -0.065298 0.100126 0.098171 0.025037 -0.273846 0.151700 -0.243534 -0.057028 0.212617 -0.166374 -0.029809 0.163979 -0.136519 -0.009464 -0.016472 0.017812 0.188497 0.083145 -0.012157 -0.171800 0.193586 -0.499738 0.075354 -0.051371 -0.166503 -0.019380 -0.065987 -0.210311 -0.087069 0.078606 0.090830 0.052192 0.048602 0.185387 -0.179556 0.008789 0.027412 0.108516 0.067359 0.062722 0.068791 0.217145 -0.055864 0.033379 -0.068294 0.008135 -0.214916 -0.055572 -0.205984 -0.063019 0.271648 0.116672 -0.036955 -0.090242 0.215092 0.013857 0.096048 -0.174914 -0.159867 0.041106 0.393016 0.228729 -0.348479 0.193077 0.177426 0.059671 0.213182 0.062947 -0.233196 -0.057868 -0.029420 -0.052494 -0.212857 0.046672 0.146055 -0.127171 0.101230 -0.150851 -0.156550 0.025298 0.135382 0.152615 0.074660 -0.148169 -0.152055 -0.098455 0.072484 -0.268920 0.149812 0.051025 0.190496 -0.120102 0.226849 -0.227986 -0.114523 -0.060605 -0.118866 0.045970 -0.010443 0.085308 0.139120 0.307998 -0.157970 -0.156736 -0.084365 -0.059499 -0.097246 0.065632 -0.235009 0.128801 0.245867 0.034966 0.090096 0.230140 0.029517 -0.097247 -0.024048 0.010874 0.008047 -0.019937 -0.120013 0.118769 -0.148308 0.036583 -0.109202 -0.115957 0.171713 0.166126 -0.194981 -0.086138 0.168879 -0.169513 0.140947 0.086557 0.094368 0.140733 0.309728 0.080872 0.086096 0.264242 0.256018 -0.280163 0.051527 0.066881 -0.182959
救助 0.076596 0.010122 0.168697 -0.136068 -0.004388 -0.175811 -0.058267 0.044280 -0.023144 0.137365 -0.010115 0.148465 -0.147914 -0.229145 0.088602 -0.153005 -0.064797 0.301066 0.017148 -0.069088 -0.079507 0.012577 0.135046 -0.042319 -0.046293 -0.222442 -0.082063 0.010836 0.203674 0.300944 0.042360 -0.440386 -0.259337 0.066006 -0.247102 0.248501 0.125419 0.099764 0.010205 0.091401 0.049541 0.023898 0.099631 -0.248377 0.046136 -0.097831 0.074607 0.049747 0.073772 0.023831 0.182894 0.013341 0.214492 0.190771 -0.058980 -0.070592 0.106526 0.100360 0.028843 -0.287593 0.158470 -0.253956 -0.059201 0.224210 -0.170293 -0.031008 0.172404 -0.145799 -0.009775 -0.017463 0.018352 0.200989 0.084097 -0.011190 -0.175599 0.200565 -0.521237 0.080492 -0.050224 -0.170647 -0.019725 -0.069643 -0.215709 -0.093976 0.079370 0.092207 0.057745 0.052648 0.193630 -0.186001 0.008304 0.027343 0.112712 0.070824 0.069341 0.069942 0.232086 -0.056383 0.034183 -0.071965 0.010375 -0.222613 -0.058576 -0.218205 -0.066105 0.284055 0.118133 -0.040894 -0.093741 0.222504 0.015738 0.099583 -0.187047 -0.165785 0.040708 0.410270 0.238734 -0.364435 0.200079 0.185257 0.060526 0.223791 0.066046 -0.244497 -0.061722 -0.034727 -0.053748 -0.224377 0.049213 0.152051 -0.135235 0.107338 -0.158782 -0.163371 0.025538 0.142067 0.157882 0.077284 -0.152962 -0.161191 -0.102856 0.073459 -0.277220 0.156623 0.054934 0.197742 -0.124189 0.239038 -0.242298 -0.120790 -0.065041 -0.121306 0.049013 -0.010470 0.091281 0.144664 0.320503 -0.168816 -0.165362 -0.088804 -0.061082 -0.101267 0.071117 -0.247215 0.136295 0.255700 0.035777 0.098365 0.242277 0.029435 -0.098365 -0.022631 0.015999 0.006312 -0.019515 -0.124138 0.127200 -0.155042 0.038879 -0.109915 -0.122770 0.180645 0.171965 -0.202109 -0.090761 0.175786 -0.179465 0.151025 0.093588 0.095528 0.143437 0.324740 0.086751 0.087417 0.277882 0.268732 -0.290165 0.050261 0.069896 -0.193811
人员 0.087356 0.010161 0.195227 -0.161508 -0.000938 -0.205376 -0.068493 0.053952 -0.027917 0.154681 -0.012252 0.167100 -0.177108 -0.266469 0.100829 -0.176638 -0.077049 0.352363 0.018935 -0.081590 -0.089362 0.017458 0.154675 -0.047969 -0.056514 -0.253956 -0.095209 0.010795 0.235024 0.348021 0.048954 -0.508531 -0.301612 0.078694 -0.289711 0.284559 0.149237 0.120314 0.007436 0.104104 0.055537 0.025128 0.114021 -0.284486 0.050374 -0.111217 0.085273 0.056612 0.085777 0.024696 0.207295 0.018653 0.246359 0.218987 -0.074024 -0.078469 0.126403 0.116817 0.031838 -0.331523 0.185396 -0.291532 -0.068482 0.258998 -0.201283 -0.034807 0.197498 -0.166387 -0.008756 -0.020376 0.019949 0.231400 0.097587 -0.013957 -0.206583 0.232670 -0.604603 0.093746 -0.060651 -0.200649 -0.024344 -0.084322 -0.253539 -0.106162 0.093842 0.109742 0.065424 0.058459 0.222829 -0.213539 0.012460 0.030078 0.129230 0.082385 0.079260 0.084401 0.267321 -0.065799 0.038327 -0.086654 0.008347 -0.257151 -0.066662 -0.251710 -0.076669 0.325750 0.137374 -0.043989 -0.106606 0.260373 0.016280 0.116790 -0.213993 -0.191654 0.044229 0.478966 0.278021 -0.418485 0.232470 0.214183 0.069653 0.257951 0.071921 -0.282645 -0.070017 -0.036314 -0.062331 -0.258014 0.059789 0.179819 -0.157492 0.125602 -0.181074 -0.189730 0.028341 0.161073 0.184339 0.093188 -0.178562 -0.186301 -0.121603 0.085987 -0.323194 0.181456 0.064017 0.229295 -0.144415 0.274126 -0.280994 -0.136431 -0.070889 -0.140177 0.057431 -0.010967 0.104692 0.164049 0.368441 -0.193874 -0.191367 -0.102484 -0.070525 -0.113776 0.078464 -0.284915 0.158140 0.296155 0.043105 0.111243 0.276833 0.033817 -0.116296 -0.029034 0.018931 0.006801 -0.024276 -0.145708 0.145605 -0.180934 0.045732 -0.130865 -0.136499 0.208013 0.200491 -0.238371 -0.104577 0.201060 -0.209675 0.174715 0.107557 0.115322 0.167056 0.374010 0.098230 0.103767 0.319254 0.312177 -0.340921 0.059545 0.078993 -0.220911
贫困 0.070096 0.008511 0.157136 -0.132703 -0.003224 -0.166902 -0.052563 0.046132 -0.022071 0.130518 -0.008737 0.138908 -0.141046 -0.218816 0.081910 -0.147234 -0.062135 0.287869 0.018018 -0.065262 -0.071769 0.011202 0.127344 -0.041952 -0.043756 -0.211780 -0.078961 0.009152 0.193347 0.286913 0.041643 -0.417150 -0.245122 0.062675 -0.237414 0.235039 0.121337 0.097250 0.009712 0.085183 0.045338 0.023147 0.097066 -0.235824 0.043972 -0.090993 0.071137 0.045485 0.068349 0.020114 0.170735 0.015173 0.204691 0.178887 -0.059624 -0.063789 0.104265 0.096860 0.026300 -0.271944 0.152217 -0.242582 -0.056817 0.213077 -0.161720 -0.028352 0.160820 -0.138227 -0.010471 -0.014215 0.015580 0.189417 0.082618 -0.009620 -0.169827 0.192116 -0.493654 0.077637 -0.049906 -0.164939 -0.021637 -0.067003 -0.208093 -0.085160 0.077616 0.088296 0.054241 0.047781 0.181270 -0.174825 0.007227 0.024932 0.104897 0.065406 0.062160 0.066362 0.219036 -0.056705 0.030138 -0.070286 0.010061 -0.211600 -0.054842 -0.204830 -0.065993 0.267690 0.113207 -0.034982 -0.085370 0.214969 0.015488 0.097091 -0.176987 -0.158487 0.040965 0.391306 0.230057 -0.341917 0.191634 0.173702 0.058748 0.215857 0.062227 -0.233041 -0.059093 -0.032745 -0.051791 -0.213664 0.049386 0.146116 -0.130974 0.102234 -0.149374 -0.157459 0.022207 0.132757 0.150306 0.076743 -0.148940 -0.152445 -0.098347 0.071790 -0.265194 0.150854 0.051889 0.188022 -0.115229 0.225955 -0.230739 -0.113685 -0.057876 -0.117926 0.047009 -0.006276 0.085682 0.134501 0.305456 -0.156892 -0.155016 -0.085586 -0.056916 -0.093464 0.064856 -0.233081 0.127008 0.244175 0.035244 0.090236 0.229884 0.026542 -0.096220 -0.023645 0.011892 0.006576 -0.017895 -0.121637 0.119649 -0.151660 0.039787 -0.103826 -0.116007 0.172377 0.165646 -0.195599 -0.087505 0.166252 -0.171416 0.142963 0.085901 0.092907 0.135844 0.306812 0.078270 0.086499 0.261470 0.254875 -0.276111 0.047336 0.064142 -0.183737
农村 0.064749 0.006424 0.144609 -0.121895 -0.002144 -0.151771 -0.048542 0.041354 -0.019310 0.118541 -0.007339 0.128374 -0.131332 -0.202758 0.075803 -0.132273 -0.055667 0.266238 0.013842 -0.060985 -0.069201 0.013547 0.118779 -0.037655 -0.042931 -0.191710 -0.069217 0.008767 0.178421 0.260134 0.037878 -0.382071 -0.225755 0.060333 -0.216910 0.216501 0.112241 0.087218 0.006111 0.078449 0.043564 0.021479 0.088510 -0.214581 0.040946 -0.086514 0.066335 0.043086 0.062092 0.019155 0.155697 0.012834 0.184975 0.163063 -0.055743 -0.061556 0.094229 0.088493 0.027038 -0.251943 0.137783 -0.218749 -0.052727 0.195913 -0.151224 -0.024765 0.150263 -0.126473 -0.010171 -0.015519 0.013801 0.174420 0.073340 -0.012381 -0.152685 0.177691 -0.455803 0.071214 -0.045496 -0.151259 -0.017368 -0.062060 -0.191815 -0.079378 0.072199 0.080285 0.052365 0.045969 0.170474 -0.164202 0.008186 0.022101 0.096447 0.062209 0.056759 0.063813 0.202058 -0.051810 0.026682 -0.065042 0.008508 -0.195927 -0.053415 -0.190773 -0.057926 0.249248 0.106593 -0.034200 -0.078998 0.195875 0.015332 0.088322 -0.161739 -0.146650 0.033584 0.358476 0.211934 -0.314974 0.176157 0.158434 0.053142 0.196269 0.057239 -0.211949 -0.052923 -0.029299 -0.048059 -0.194930 0.044417 0.133749 -0.120289 0.093591 -0.138758 -0.146056 0.020668 0.124748 0.137322 0.070141 -0.135615 -0.140584 -0.093468 0.066907 -0.243406 0.136031 0.046384 0.175526 -0.108658 0.205608 -0.207964 -0.104354 -0.055034 -0.109366 0.043453 -0.005972 0.078109 0.122592 0.279014 -0.145721 -0.142590 -0.078643 -0.054955 -0.086796 0.061567 -0.214467 0.119830 0.223960 0.029763 0.081632 0.210638 0.026065 -0.089174 -0.019912 0.014068 0.004482 -0.020470 -0.111288 0.111795 -0.137421 0.034655 -0.097684 -0.107059 0.154184 0.152609 -0.178988 -0.079646 0.154312 -0.154669 0.133051 0.079269 0.086385 0.124726 0.281078 0.071415 0.077564 0.238293 0.233085 -0.255978 0.047717 0.059270 -0.168161
医疗 0.071709 0.010190 0.163091 -0.135217 -0.002261 -0.171454 -0.052845 0.045044 -0.021073 0.132096 -0.007974 0.138944 -0.146172 -0.221800 0.081158 -0.148869 -0.065389 0.291231 0.017413 -0.068349 -0.073745 0.013877 0.130948 -0.039065 -0.043839 -0.213730 -0.076827 0.008468 0.198600 0.287001 0.039244 -0.426013 -0.248229 0.066025 -0.241542 0.240205 0.121115 0.095639 0.007877 0.084588 0.046193 0.023805 0.098872 -0.238807 0.043150 -0.093794 0.073141 0.049985 0.070984 0.020702 0.172050 0.015119 0.208313 0.181759 -0.060617 -0.067304 0.105197 0.098609 0.025343 -0.279291 0.153368 -0.245985 -0.057867 0.212877 -0.165516 -0.025654 0.167402 -0.140861 -0.006747 -0.015299 0.016325 0.194771 0.082851 -0.008018 -0.171054 0.192238 -0.499968 0.075172 -0.052014 -0.168471 -0.021557 -0.067961 -0.211662 -0.089012 0.075542 0.088405 0.052547 0.050644 0.187485 -0.180486 0.010625 0.028428 0.106671 0.069157 0.065814 0.068426 0.219516 -0.054189 0.029689 -0.070582 0.010910 -0.215960 -0.056666 -0.210351 -0.063943 0.273021 0.115699 -0.036119 -0.090622 0.217459 0.016978 0.096283 -0.179755 -0.158791 0.040300 0.395836 0.232205 -0.349695 0.194360 0.177608 0.061951 0.215434 0.061241 -0.235643 -0.058232 -0.031074 -0.052740 -0.215735 0.046824 0.147767 -0.129047 0.101396 -0.149592 -0.157729 0.024341 0.135799 0.154796 0.074861 -0.149265 -0.152939 -0.101974 0.070647 -0.269805 0.150712 0.051472 0.192896 -0.117447 0.230290 -0.233912 -0.114062 -0.060577 -0.118536 0.043845 -0.007934 0.085887 0.138767 0.307523 -0.159274 -0.159379 -0.086268 -0.061791 -0.094357 0.065536 -0.236188 0.132390 0.248074 0.034730 0.092339 0.233878 0.030293 -0.096356 -0.020676 0.016292 0.008024 -0.021295 -0.121193 0.123283 -0.150559 0.039706 -0.106863 -0.115467 0.173376 0.162571 -0.197692 -0.088244 0.167634 -0.174607 0.144475 0.087075 0.092085 0.138042 0.310982 0.082928 0.083768 0.264927 0.259719 -0.280682 0.051159 0.067071 -0.185064
学生 0.060981 0.010312 0.138177 -0.114671 -0.002179 -0.143836 -0.046687 0.036073 -0.016754 0.110975 -0.007142 0.121796 -0.126436 -0.189252 0.069733 -0.124605 -0.053329 0.251919 0.012669 -0.056523 -0.064377 0.008945 0.110481 -0.035982 -0.036903 -0.183980 -0.065280 0.007320 0.168760 0.247322 0.035232 -0.361656 -0.214530 0.051920 -0.203391 0.202572 0.103045 0.085028 0.007611 0.076261 0.036600 0.020262 0.083725 -0.205250 0.037915 -0.081288 0.063629 0.040229 0.061350 0.018607 0.151056 0.010655 0.177185 0.158651 -0.051826 -0.059359 0.086519 0.080857 0.025789 -0.237538 0.132293 -0.206881 -0.052657 0.184717 -0.140310 -0.022289 0.144334 -0.120024 -0.006275 -0.013598 0.012671 0.166779 0.068230 -0.011084 -0.143681 0.166953 -0.430538 0.066091 -0.044596 -0.144147 -0.019886 -0.057859 -0.181749 -0.074232 0.067308 0.078659 0.048361 0.042023 0.157309 -0.152497 0.007990 0.023996 0.089575 0.056709 0.053463 0.059603 0.187649 -0.047247 0.027024 -0.059738 0.007786 -0.185994 -0.048108 -0.179622 -0.056459 0.231876 0.100792 -0.031440 -0.077865 0.186623 0.015078 0.081727 -0.152811 -0.136645 0.036219 0.341431 0.200655 -0.301929 0.167929 0.152393 0.050354 0.184138 0.054766 -0.200064 -0.050195 -0.026636 -0.043171 -0.185588 0.042596 0.129057 -0.112068 0.087034 -0.129804 -0.135450 0.019636 0.118519 0.131436 0.063544 -0.128202 -0.134075 -0.085292 0.058695 -0.230849 0.131627 0.043774 0.164369 -0.103190 0.193877 -0.199751 -0.098672 -0.053586 -0.100414 0.039865 -0.005842 0.074488 0.118131 0.265132 -0.138385 -0.134921 -0.071418 -0.053086 -0.083797 0.055961 -0.202514 0.110842 0.213122 0.030523 0.082249 0.200337 0.027334 -0.083692 -0.018390 0.013172 0.007685 -0.017872 -0.102440 0.104408 -0.131376 0.032977 -0.090672 -0.098168 0.147981 0.140507 -0.167231 -0.072085 0.146606 -0.145419 0.125154 0.072781 0.079549 0.120353 0.268219 0.070657 0.072243 0.227583 0.222873 -0.243751 0.044436 0.056546 -0.159641
优抚对象 0.061413 0.007931 0.135571 -0.113428 -0.001181 -0.144825 -0.046143 0.041218 -0.019867 0.112970 -0.006517 0.122513 -0.125380 -0.189506 0.072605 -0.126264 -0.054690 0.250617 0.016150 -0.057922 -0.063709 0.013119 0.112643 -0.036090 -0.040251 -0.183356 -0.068086 0.006912 0.170794 0.248471 0.036489 -0.361480 -0.214109 0.056546 -0.206369 0.205714 0.105009 0.081334 0.008658 0.074651 0.036100 0.016148 0.085579 -0.204319 0.038047 -0.081455 0.059998 0.039435 0.061927 0.019373 0.148632 0.011190 0.174361 0.155320 -0.048946 -0.055751 0.085899 0.085956 0.024531 -0.237697 0.127810 -0.210438 -0.048850 0.186018 -0.144006 -0.021435 0.139123 -0.119434 -0.006481 -0.013986 0.013571 0.162982 0.071179 -0.011117 -0.146065 0.167408 -0.431167 0.066259 -0.040067 -0.143655 -0.018767 -0.059774 -0.180124 -0.076114 0.066584 0.078216 0.045097 0.044596 0.160621 -0.154182 0.007242 0.023424 0.089136 0.058303 0.054826 0.056265 0.189657 -0.045255 0.025789 -0.061715 0.009718 -0.183506 -0.046435 -0.179446 -0.055341 0.231144 0.100485 -0.031208 -0.074210 0.182207 0.011816 0.082834 -0.150961 -0.136914 0.036421 0.341364 0.197087 -0.298861 0.164961 0.152959 0.052472 0.187151 0.050511 -0.201581 -0.050296 -0.025045 -0.043681 -0.182459 0.039877 0.128728 -0.113608 0.087084 -0.126440 -0.134543 0.020597 0.117151 0.130699 0.066056 -0.127255 -0.133608 -0.086965 0.059396 -0.231806 0.128956 0.046008 0.164712 -0.104580 0.196954 -0.195924 -0.098208 -0.051367 -0.101954 0.040046 -0.009086 0.071910 0.116994 0.264359 -0.140196 -0.137687 -0.072750 -0.049374 -0.083424 0.057434 -0.200013 0.111277 0.210736 0.031834 0.079087 0.198033 0.024657 -0.081805 -0.018410 0.010391 0.004330 -0.015725 -0.104209 0.102599 -0.128586 0.035429 -0.090616 -0.098433 0.146245 0.142811 -0.169616 -0.074020 0.141999 -0.146273 0.123265 0.076188 0.082879 0.119046 0.268073 0.070050 0.074626 0.229014 0.222749 -0.240946 0.045449 0.057343 -0.159013
计划生育 0.065452 0.010079 0.146617 -0.119668 -0.003893 -0.155910 -0.049092 0.042010 -0.017628 0.117506 -0.010894 0.126475 -0.130483 -0.198275 0.074379 -0.131482 -0.056038 0.264080 0.016708 -0.057457 -0.068870 0.011965 0.115345 -0.037098 -0.042318 -0.194642 -0.072145 0.009678 0.178950 0.260127 0.034465 -0.381125 -0.225996 0.060034 -0.217733 0.215987 0.112704 0.088745 0.005319 0.078112 0.042550 0.017842 0.089680 -0.215625 0.039056 -0.081586 0.065623 0.040961 0.064374 0.019854 0.157819 0.015081 0.186390 0.162138 -0.053113 -0.061859 0.091502 0.085149 0.023900 -0.250742 0.136426 -0.219317 -0.055341 0.193089 -0.149173 -0.022603 0.148016 -0.126279 -0.005953 -0.017299 0.013039 0.173009 0.074941 -0.008909 -0.154831 0.172718 -0.452451 0.067006 -0.045361 -0.147903 -0.016755 -0.059913 -0.187168 -0.077740 0.067037 0.081184 0.049829 0.044524 0.165917 -0.159416 0.004813 0.020982 0.097996 0.061252 0.059235 0.060960 0.200365 -0.048333 0.029764 -0.066181 0.010388 -0.194652 -0.052501 -0.186599 -0.057473 0.247577 0.103331 -0.033447 -0.080095 0.192226 0.015494 0.089297 -0.163052 -0.146739 0.036715 0.356984 0.208936 -0.314994 0.177857 0.160131 0.052251 0.195358 0.054370 -0.212939 -0.052379 -0.028276 -0.044440 -0.191660 0.045979 0.132821 -0.115684 0.090349 -0.132559 -0.143153 0.021100 0.121330 0.139280 0.065594 -0.132343 -0.139492 -0.091618 0.065457 -0.241001 0.136135 0.047628 0.169997 -0.109085 0.204231 -0.210646 -0.103294 -0.057226 -0.106697 0.039768 -0.009280 0.075264 0.124328 0.280383 -0.147476 -0.143787 -0.077731 -0.054923 -0.085142 0.060423 -0.211651 0.116398 0.220608 0.030592 0.082686 0.210099 0.028461 -0.085184 -0.020907 0.013604 0.005392 -0.019147 -0.110688 0.110074 -0.134616 0.033772 -0.098467 -0.102804 0.154148 0.149759 -0.177691 -0.079510 0.152173 -0.155578 0.128491 0.080100 0.084958 0.127564 0.278534 0.073549 0.074421 0.241466 0.232931 -0.254748 0.047203 0.059967 -0.166643
特殊 0.075206 0.009948 0.160709 -0.131287 -0.000445 -0.167692 -0.056196 0.043376 -0.024007 0.130028 -0.008644 0.141623 -0.143884 -0.218451 0.084544 -0.142945 -0.062818 0.289853 0.015345 -0.068047 -0.074660 0.014408 0.129088 -0.040404 -0.048358 -0.213715 -0.077033 0.008066 0.195566 0.286471 0.040648 -0.424360 -0.251289 0.061162 -0.236299 0.236018 0.119335 0.098889 0.009895 0.087379 0.045916 0.019417 0.097948 -0.236180 0.042569 -0.094056 0.072009 0.049020 0.070398 0.021912 0.175388 0.014838 0.203781 0.183274 -0.056269 -0.064268 0.103025 0.093879 0.025268 -0.274000 0.152952 -0.241881 -0.061322 0.215084 -0.165031 -0.027981 0.165231 -0.139564 -0.009459 -0.014000 0.018141 0.190238 0.079250 -0.011579 -0.169847 0.192168 -0.500382 0.075623 -0.047241 -0.164523 -0.018563 -0.068979 -0.206532 -0.089969 0.074081 0.091857 0.056873 0.051049 0.182603 -0.177610 0.005468 0.026152 0.105091 0.067294 0.062443 0.065632 0.220919 -0.054497 0.033416 -0.070193 0.011193 -0.212925 -0.054514 -0.208833 -0.063974 0.270214 0.116553 -0.036163 -0.089848 0.213889 0.017037 0.092927 -0.177972 -0.157729 0.039661 0.396332 0.232536 -0.347725 0.193879 0.177375 0.060495 0.213848 0.061856 -0.231806 -0.055890 -0.030654 -0.049342 -0.212855 0.046218 0.148139 -0.127938 0.099831 -0.150063 -0.158078 0.022284 0.135072 0.151202 0.074261 -0.147515 -0.153071 -0.103599 0.069650 -0.268865 0.151164 0.054174 0.187489 -0.117728 0.225404 -0.228350 -0.116194 -0.060432 -0.118157 0.044990 -0.008205 0.086498 0.139252 0.305400 -0.161128 -0.155873 -0.085329 -0.058967 -0.096934 0.065190 -0.236866 0.132687 0.246983 0.037166 0.091016 0.228499 0.026715 -0.094536 -0.022252 0.011609 0.008277 -0.020727 -0.119004 0.119026 -0.152262 0.039464 -0.106431 -0.118162 0.171059 0.162705 -0.197985 -0.088215 0.168893 -0.172312 0.144009 0.088698 0.095174 0.140168 0.309267 0.077936 0.087121 0.263242 0.256395 -0.280667 0.053183 0.064716 -0.185404
资助 0.081049 0.010427 0.176393 -0.143064 -0.003887 -0.185495 -0.058592 0.050864 -0.022684 0.140223 -0.008504 0.153508 -0.159081 -0.239376 0.089173 -0.160495 -0.070852 0.316687 0.017854 -0.072308 -0.081204 0.012594 0.138486 -0.041817 -0.050177 -0.232153 -0.082868 0.010995 0.210754 0.311660 0.043027 -0.460885 -0.270561 0.071251 -0.261184 0.257806 0.132154 0.106354 0.010363 0.094023 0.048890 0.020842 0.106231 -0.255770 0.046493 -0.101004 0.075777 0.052831 0.077802 0.023829 0.187470 0.016964 0.222022 0.197165 -0.067019 -0.071553 0.110666 0.105348 0.027929 -0.299666 0.166785 -0.262418 -0.062881 0.234898 -0.179289 -0.032574 0.179011 -0.151762 -0.009630 -0.017151 0.017516 0.207484 0.087009 -0.010955 -0.187190 0.208616 -0.543864 0.081742 -0.054425 -0.180778 -0.021172 -0.071507 -0.227177 -0.097410 0.085227 0.097519 0.059625 0.055589 0.203514 -0.194588 0.010787 0.029173 0.116240 0.073269 0.071910 0.075628 0.239936 -0.062575 0.036399 -0.076611 0.011430 -0.232700 -0.059359 -0.226083 -0.069019 0.292954 0.123573 -0.043312 -0.093896 0.235881 0.015453 0.103884 -0.192107 -0.174715 0.042657 0.427769 0.252002 -0.380745 0.211252 0.188514 0.065604 0.233991 0.064976 -0.254633 -0.062958 -0.036062 -0.055359 -0.235015 0.053314 0.162375 -0.143753 0.108593 -0.164513 -0.172790 0.026670 0.144395 0.167148 0.081395 -0.160208 -0.168347 -0.111556 0.076004 -0.290058 0.165210 0.059366 0.207550 -0.127070 0.246480 -0.251316 -0.122803 -0.067459 -0.127802 0.050037 -0.010902 0.095764 0.147316 0.333461 -0.175033 -0.171132 -0.092100 -0.063634 -0.105229 0.073497 -0.253603 0.143112 0.268928 0.040522 0.102356 0.250995 0.030868 -0.103757 -0.023588 0.015621 0.006980 -0.020001 -0.132079 0.133901 -0.164230 0.045100 -0.115413 -0.125869 0.186149 0.178371 -0.213295 -0.095060 0.183070 -0.187486 0.154863 0.093858 0.102254 0.152338 0.336349 0.089553 0.094444 0.286671 0.278338 -0.307393 0.052627 0.074285 -0.203035
慰问金 0.049966 0.005047 0.111275 -0.092469 -0.003360 -0.117324 -0.039010 0.030330 -0.016913 0.089001 -0.006342 0.097912 -0.100229 -0.152781 0.059464 -0.098764 -0.044007 0.201998 0.010359 -0.045703 -0.052464 0.008482 0.091412 -0.028022 -0.034381 -0.149628 -0.056296 0.006099 0.136089 0.198263 0.027490 -0.292862 -0.173488 0.046185 -0.164052 0.163756 0.085455 0.066585 0.005086 0.060646 0.031027 0.017412 0.067889 -0.162351 0.030356 -0.064440 0.048239 0.033533 0.047737 0.016807 0.122142 0.008905 0.141447 0.124430 -0.039226 -0.043797 0.070147 0.064769 0.018849 -0.192065 0.103751 -0.169828 -0.041128 0.146569 -0.114637 -0.019684 0.114864 -0.094323 -0.007148 -0.013827 0.008964 0.131288 0.057755 -0.008182 -0.118463 0.131789 -0.345063 0.051748 -0.036390 -0.114647 -0.014807 -0.045784 -0.142555 -0.062307 0.053202 0.063907 0.037077 0.035767 0.128801 -0.121798 0.005612 0.017513 0.075735 0.048271 0.042484 0.046158 0.152392 -0.037128 0.024007 -0.049271 0.008804 -0.148637 -0.039312 -0.145612 -0.046980 0.188351 0.080444 -0.023765 -0.059002 0.151366 0.010429 0.067683 -0.122522 -0.111007 0.027694 0.273637 0.160718 -0.242985 0.133771 0.122616 0.038802 0.149794 0.039980 -0.159132 -0.039319 -0.021641 -0.036579 -0.146856 0.034285 0.104008 -0.088343 0.070151 -0.102721 -0.108155 0.015209 0.092703 0.106019 0.053192 -0.102671 -0.108850 -0.071955 0.048860 -0.185636 0.103341 0.038111 0.133845 -0.080554 0.156041 -0.157595 -0.080408 -0.039615 -0.083844 0.031765 -0.007578 0.057308 0.095451 0.212469 -0.109066 -0.107404 -0.059053 -0.038836 -0.065228 0.045304 -0.161371 0.090866 0.171761 0.024668 0.066171 0.157558 0.020662 -0.065045 -0.015523 0.009354 0.005917 -0.011329 -0.085256 0.081379 -0.105923 0.027945 -0.076024 -0.080759 0.118016 0.112061 -0.134846 -0.062424 0.115881 -0.117304 0.100288 0.059304 0.062751 0.095467 0.214040 0.054488 0.058741 0.183468 0.177969 -0.194723 0.036000 0.046011 -0.126671
就业 0.088782 0.009807 0.195099 -0.161849 -0.000798 -0.202094 -0.068208 0.053173 -0.027425 0.155885 -0.009709 0.168916 -0.172843 -0.267238 0.101194 -0.174570 -0.074599 0.349072 0.017295 -0.076950 -0.090904 0.013122 0.153794 -0.046883 -0.055331 -0.258498 -0.096125 0.009456 0.235167 0.347370 0.046820 -0.507013 -0.302389 0.078026 -0.289194 0.283596 0.145846 0.118357 0.010059 0.106056 0.055186 0.025190 0.117837 -0.287460 0.050295 -0.111399 0.084843 0.056695 0.083498 0.025313 0.210636 0.019275 0.246114 0.221101 -0.071363 -0.080223 0.126382 0.116036 0.031731 -0.332605 0.181954 -0.290203 -0.072499 0.256850 -0.196966 -0.035670 0.198416 -0.166272 -0.009272 -0.019131 0.021299 0.230179 0.097502 -0.015218 -0.206147 0.234483 -0.601651 0.090596 -0.057397 -0.199076 -0.028410 -0.083655 -0.254327 -0.105457 0.090813 0.109065 0.066592 0.059389 0.222230 -0.215060 0.007810 0.028973 0.127780 0.079653 0.078539 0.080237 0.265778 -0.067673 0.035324 -0.087220 0.010268 -0.260283 -0.066215 -0.248897 -0.076916 0.327109 0.138882 -0.046672 -0.106902 0.258854 0.018395 0.116901 -0.212236 -0.192196 0.045283 0.477551 0.276381 -0.421997 0.231986 0.212567 0.073821 0.259856 0.073925 -0.277588 -0.068746 -0.038243 -0.059379 -0.259656 0.058138 0.176140 -0.158657 0.119627 -0.178100 -0.191047 0.031886 0.160831 0.183563 0.089590 -0.176999 -0.185085 -0.120211 0.085598 -0.323324 0.184329 0.064213 0.231326 -0.142727 0.274194 -0.279636 -0.139712 -0.073611 -0.143872 0.056026 -0.009697 0.102342 0.164044 0.371267 -0.193678 -0.190098 -0.101904 -0.072797 -0.113507 0.077292 -0.284106 0.158117 0.296652 0.044344 0.113110 0.280152 0.034221 -0.119704 -0.026545 0.016633 0.007013 -0.021473 -0.145270 0.145592 -0.184382 0.047844 -0.130297 -0.138447 0.206075 0.200505 -0.238467 -0.105692 0.205773 -0.206441 0.174428 0.106571 0.111509 0.166009 0.372553 0.096211 0.102491 0.318609 0.312810 -0.338332 0.060550 0.078758 -0.220843
扶贫 0.070024 0.007867 0.154608 -0.125625 -0.002683 -0.163549 -0.054482 0.041813 -0.021041 0.121431 -0.010601 0.134505 -0.135381 -0.211119 0.077372 -0.140299 -0.057318 0.275673 0.016232 -0.063362 -0.072048 0.013573 0.124715 -0.038553 -0.045202 -0.200630 -0.075815 0.009261 0.185372 0.273582 0.037990 -0.404177 -0.237553 0.058875 -0.229428 0.224021 0.114528 0.092796 0.008566 0.082459 0.043044 0.022268 0.091328 -0.226628 0.040230 -0.086244 0.070694 0.047438 0.067418 0.022137 0.163750 0.014858 0.195917 0.171376 -0.056949 -0.062075 0.097242 0.089530 0.026856 -0.260721 0.142670 -0.229117 -0.053788 0.205482 -0.158527 -0.025326 0.159593 -0.129551 -0.010465 -0.014370 0.016734 0.179753 0.077943 -0.010358 -0.163841 0.181016 -0.475020 0.072200 -0.047950 -0.156931 -0.019237 -0.063024 -0.199866 -0.081387 0.075322 0.085571 0.051610 0.047130 0.175607 -0.172217 0.008774 0.024090 0.099014 0.063326 0.059228 0.066403 0.207423 -0.053993 0.029297 -0.065173 0.006942 -0.201679 -0.052079 -0.196069 -0.060090 0.260186 0.109291 -0.037535 -0.085690 0.205851 0.013819 0.092583 -0.168880 -0.151608 0.034879 0.376616 0.219537 -0.331678 0.187179 0.166376 0.056903 0.206785 0.057633 -0.222538 -0.057078 -0.029036 -0.047265 -0.205153 0.043475 0.140662 -0.124682 0.096081 -0.144766 -0.148086 0.020571 0.130383 0.148188 0.069746 -0.142207 -0.145214 -0.095828 0.069765 -0.253491 0.142023 0.050639 0.179595 -0.114068 0.217430 -0.222361 -0.110287 -0.059567 -0.111456 0.045300 -0.007597 0.081302 0.130396 0.290736 -0.152278 -0.153289 -0.078858 -0.058705 -0.091027 0.064753 -0.225833 0.123005 0.234591 0.035946 0.087800 0.218612 0.026157 -0.091325 -0.021422 0.012286 0.008010 -0.017135 -0.112648 0.114758 -0.142935 0.035292 -0.104552 -0.109684 0.165873 0.158200 -0.188448 -0.084395 0.162725 -0.164984 0.138936 0.082095 0.088919 0.134578 0.296050 0.074973 0.080875 0.254254 0.243040 -0.267674 0.046323 0.062600 -0.177516
残疾 0.083721 0.013300 0.183500 -0.150752 0.000117 -0.191810 -0.062758 0.048955 -0.024186 0.150700 -0.010846 0.161096 -0.164918 -0.251164 0.091518 -0.168274 -0.071149 0.328754 0.018221 -0.074135 -0.085386 0.012735 0.145430 -0.043113 -0.053548 -0.242950 -0.088341 0.009196 0.223205 0.328054 0.046079 -0.482243 -0.285850 0.072626 -0.272885 0.272607 0.139516 0.109137 0.009591 0.098033 0.053435 0.022186 0.109621 -0.267173 0.047133 -0.104749 0.083280 0.053861 0.081947 0.025026 0.196224 0.017652 0.234977 0.207007 -0.068243 -0.076012 0.117550 0.110856 0.033114 -0.316305 0.174310 -0.275337 -0.068816 0.243647 -0.187832 -0.034097 0.187029 -0.156004 -0.010090 -0.018175 0.017056 0.216017 0.090780 -0.015157 -0.191335 0.217441 -0.567317 0.087886 -0.057745 -0.186323 -0.023815 -0.078329 -0.237329 -0.102532 0.085174 0.105207 0.064451 0.056364 0.211886 -0.205852 0.009939 0.026365 0.119124 0.077808 0.071988 0.075549 0.252679 -0.063459 0.033592 -0.079013 0.009478 -0.242449 -0.062329 -0.237787 -0.074431 0.310459 0.133963 -0.041597 -0.099132 0.245106 0.016066 0.109954 -0.204995 -0.179686 0.045002 0.450105 0.262076 -0.399192 0.223230 0.200184 0.064876 0.243266 0.072624 -0.266370 -0.064596 -0.035282 -0.055681 -0.244218 0.055650 0.167453 -0.149626 0.113822 -0.172104 -0.178140 0.028009 0.153227 0.174573 0.084770 -0.168204 -0.173800 -0.114610 0.079659 -0.303508 0.173298 0.060758 0.216015 -0.137631 0.259441 -0.261633 -0.127768 -0.068226 -0.136862 0.051967 -0.010802 0.099655 0.157956 0.352213 -0.184347 -0.181991 -0.095506 -0.069464 -0.110552 0.073056 -0.265827 0.147367 0.280564 0.043086 0.103663 0.261235 0.034801 -0.108881 -0.023429 0.016052 0.009115 -0.020412 -0.138251 0.136323 -0.170915 0.042848 -0.125221 -0.131736 0.196726 0.188943 -0.221903 -0.096140 0.194312 -0.196543 0.165497 0.098941 0.106751 0.156716 0.351211 0.094090 0.094645 0.300996 0.294387 -0.320525 0.055738 0.077302 -0.211922
和 0.067634 0.009915 0.147939 -0.122107 -0.000621 -0.157012 -0.051129 0.039731 -0.022527 0.120656 -0.007295 0.130005 -0.130748 -0.203968 0.076667 -0.132267 -0.057832 0.266905 0.014003 -0.058348 -0.070710 0.013266 0.118529 -0.038894 -0.041335 -0.194730 -0.072565 0.010426 0.179702 0.266290 0.037611 -0.389655 -0.231081 0.060684 -0.218293 0.217560 0.113953 0.089359 0.007773 0.078153 0.043552 0.021239 0.086422 -0.216867 0.039992 -0.085304 0.068179 0.043797 0.066581 0.022658 0.161957 0.013672 0.190593 0.168740 -0.054518 -0.061676 0.094981 0.091583 0.026991 -0.253862 0.139458 -0.221799 -0.053482 0.198450 -0.149979 -0.025093 0.153379 -0.127148 -0.006275 -0.015964 0.013561 0.176956 0.076828 -0.010030 -0.155446 0.179309 -0.460775 0.071348 -0.044111 -0.154498 -0.018715 -0.064185 -0.194650 -0.081892 0.070549 0.084409 0.047942 0.048185 0.169736 -0.166191 0.009839 0.023731 0.099500 0.058937 0.058216 0.064290 0.202309 -0.052335 0.027420 -0.062409 0.006463 -0.198903 -0.050753 -0.192080 -0.058822 0.246783 0.104582 -0.034558 -0.077703 0.199116 0.012340 0.086607 -0.164539 -0.149089 0.038105 0.362942 0.210814 -0.320860 0.176458 0.163187 0.053605 0.196576 0.056529 -0.212786 -0.054997 -0.027044 -0.047178 -0.199412 0.043029 0.136302 -0.121859 0.095229 -0.138042 -0.144257 0.022769 0.123463 0.141389 0.069028 -0.138419 -0.142391 -0.091461 0.065492 -0.247283 0.138260 0.046598 0.177540 -0.111178 0.211378 -0.214379 -0.103084 -0.053522 -0.106290 0.041996 -0.004952 0.079923 0.125003 0.282386 -0.147014 -0.146420 -0.077888 -0.052105 -0.086162 0.062192 -0.214007 0.122133 0.224446 0.034457 0.085794 0.213653 0.027472 -0.089434 -0.020567 0.013417 0.004001 -0.016692 -0.113188 0.113112 -0.138569 0.038651 -0.097666 -0.104010 0.157190 0.149540 -0.180592 -0.079604 0.155097 -0.158441 0.130598 0.081200 0.083878 0.129748 0.284014 0.076156 0.080785 0.245705 0.236198 -0.258746 0.045202 0.063417 -0.170793
建档立卡 0.072754 0.009656 0.156459 -0.131866 -0.001389 -0.165337 -0.050980 0.042134 -0.019989 0.124481 -0.009914 0.138678 -0.139096 -0.215446 0.082610 -0.143786 -0.060180 0.285002 0.017213 -0.065634 -0.073591 0.011989 0.126668 -0.039098 -0.043906 -0.205702 -0.076044 0.006501 0.192335 0.280606 0.040105 -0.413694 -0.245203 0.061640 -0.235636 0.233367 0.119393 0.096501 0.008611 0.083945 0.045398 0.020041 0.093405 -0.231821 0.044531 -0.091526 0.068681 0.046578 0.070539 0.020409 0.169462 0.015889 0.202167 0.177554 -0.059431 -0.062482 0.101427 0.094114 0.028297 -0.271404 0.147444 -0.238681 -0.056372 0.209058 -0.162050 -0.029840 0.159773 -0.132066 -0.007773 -0.014482 0.017498 0.184494 0.080951 -0.010915 -0.164193 0.190200 -0.490536 0.071920 -0.050116 -0.159974 -0.021915 -0.067083 -0.201989 -0.085545 0.074505 0.088180 0.051650 0.050222 0.181758 -0.172365 0.008640 0.025201 0.106191 0.067185 0.062343 0.064587 0.215193 -0.054441 0.032339 -0.069579 0.010342 -0.208467 -0.052868 -0.200338 -0.061603 0.263711 0.114778 -0.034636 -0.087403 0.210554 0.015109 0.094295 -0.173424 -0.158298 0.040518 0.385716 0.223087 -0.341277 0.191045 0.172567 0.059792 0.209225 0.062768 -0.228627 -0.055836 -0.031557 -0.049442 -0.210674 0.049602 0.145073 -0.128731 0.098037 -0.148713 -0.154655 0.022249 0.130019 0.151635 0.076378 -0.144112 -0.151200 -0.099457 0.071663 -0.260389 0.148110 0.053922 0.186597 -0.116123 0.219450 -0.224216 -0.110327 -0.055874 -0.116762 0.042603 -0.007889 0.085935 0.132680 0.299025 -0.156028 -0.154726 -0.083544 -0.058490 -0.092035 0.062052 -0.230618 0.126701 0.241528 0.032405 0.091882 0.223594 0.028578 -0.092948 -0.019543 0.013954 0.004725 -0.020324 -0.120881 0.117009 -0.149082 0.039096 -0.103715 -0.112427 0.166353 0.161988 -0.189872 -0.085688 0.163685 -0.167824 0.140405 0.083214 0.092256 0.137967 0.304124 0.080917 0.084117 0.258160 0.252062 -0.273419 0.046885 0.065803 -0.180040
价格 0.059039 0.009303 0.131597 -0.106640 0.000574 -0.140193 -0.045393 0.037690 -0.015939 0.105708 -0.008829 0.116119 -0.118298 -0.180596 0.065254 -0.117698 -0.050653 0.235050 0.013329 -0.055968 -0.062882 0.010846 0.106746 -0.031786 -0.037960 -0.174368 -0.064225 0.006151 0.162401 0.234324 0.034699 -0.344568 -0.202544 0.054225 -0.192984 0.192154 0.098938 0.082040 0.004830 0.071649 0.037332 0.018122 0.078752 -0.195005 0.034660 -0.076398 0.060618 0.037926 0.059096 0.018821 0.140109 0.010068 0.170839 0.147775 -0.049523 -0.052387 0.082142 0.080995 0.023907 -0.226551 0.123731 -0.200721 -0.048598 0.172973 -0.136563 -0.021228 0.137198 -0.111880 -0.005991 -0.013032 0.012466 0.154788 0.065344 -0.009345 -0.140571 0.159380 -0.409556 0.061080 -0.041092 -0.133711 -0.017464 -0.052709 -0.172097 -0.073189 0.065001 0.075390 0.044196 0.039814 0.152262 -0.147864 0.009123 0.021391 0.089029 0.056427 0.053320 0.053025 0.180149 -0.044406 0.024765 -0.057134 0.006006 -0.172987 -0.047025 -0.169288 -0.051029 0.219916 0.095617 -0.029081 -0.072432 0.177719 0.011799 0.080067 -0.143711 -0.132201 0.030259 0.324581 0.191117 -0.286724 0.155970 0.142004 0.048729 0.175406 0.051250 -0.191249 -0.047172 -0.025997 -0.041909 -0.176913 0.037942 0.119178 -0.107242 0.085151 -0.120604 -0.130767 0.020342 0.111384 0.125950 0.062856 -0.120840 -0.127620 -0.082681 0.057196 -0.216994 0.121241 0.042811 0.153969 -0.097786 0.186812 -0.190918 -0.094665 -0.050350 -0.098611 0.036969 -0.007226 0.071108 0.110867 0.249870 -0.129953 -0.128172 -0.069225 -0.047700 -0.077429 0.056529 -0.193055 0.107491 0.200001 0.029094 0.077546 0.189108 0.021941 -0.081227 -0.017022 0.011452 0.005705 -0.018595 -0.098124 0.100943 -0.121786 0.030564 -0.085944 -0.095859 0.139301 0.137043 -0.160004 -0.072609 0.135382 -0.140454 0.118021 0.072578 0.078347 0.114796 0.252418 0.065035 0.071597 0.214728 0.209495 -0.229821 0.039013 0.052367 -0.151851
项目 0.074648 0.007940 0.164506 -0.136544 -0.000852 -0.174564 -0.055786 0.046437 -0.021738 0.133914 -0.008890 0.144035 -0.149308 -0.229666 0.084741 -0.151892 -0.066298 0.299905 0.018631 -0.070343 -0.076146 0.015008 0.131561 -0.042164 -0.050339 -0.216978 -0.078990 0.008282 0.199339 0.298853 0.041054 -0.437851 -0.257976 0.063741 -0.245251 0.246674 0.123676 0.100720 0.010677 0.090828 0.046358 0.024283 0.100427 -0.246101 0.046463 -0.094989 0.072269 0.048822 0.070127 0.024993 0.180693 0.017348 0.211603 0.188687 -0.063105 -0.067161 0.107416 0.100719 0.025972 -0.283098 0.158726 -0.251615 -0.058346 0.219800 -0.170441 -0.027153 0.172632 -0.143616 -0.009999 -0.018302 0.017391 0.196041 0.082573 -0.012606 -0.177365 0.197657 -0.517468 0.076092 -0.050318 -0.170175 -0.023046 -0.071865 -0.217734 -0.093024 0.078328 0.092196 0.057718 0.051122 0.191562 -0.185222 0.010774 0.026770 0.111553 0.069657 0.064630 0.072724 0.227343 -0.057229 0.032767 -0.074377 0.010981 -0.219302 -0.059780 -0.216531 -0.069215 0.278625 0.118370 -0.037932 -0.090591 0.220762 0.016258 0.098154 -0.183949 -0.166612 0.038863 0.408021 0.236381 -0.358733 0.202017 0.180851 0.061418 0.223761 0.063029 -0.239137 -0.058029 -0.030641 -0.050497 -0.219400 0.050736 0.154696 -0.132297 0.104609 -0.156012 -0.165026 0.023036 0.137187 0.160274 0.076341 -0.154942 -0.158949 -0.106652 0.072180 -0.277988 0.154283 0.055148 0.198642 -0.121173 0.233981 -0.239808 -0.116166 -0.061702 -0.120896 0.046822 -0.010078 0.087441 0.139394 0.318594 -0.164280 -0.164240 -0.085031 -0.058863 -0.100919 0.069341 -0.240619 0.136724 0.252215 0.036605 0.096212 0.240476 0.031103 -0.100743 -0.022799 0.014809 0.004731 -0.020902 -0.124085 0.126058 -0.156045 0.042578 -0.111052 -0.120135 0.179965 0.172082 -0.204225 -0.090060 0.172740 -0.175100 0.149780 0.091616 0.096910 0.142790 0.318818 0.081208 0.086319 0.272053 0.266526 -0.289699 0.050619 0.068867 -0.190416
助学金 0.062704 0.006479 0.131470 -0.107655 -0.002639 -0.139628 -0.048182 0.035676 -0.021038 0.105050 -0.007833 0.114313 -0.120630 -0.181119 0.069491 -0.122783 -0.051605 0.238963 0.016031 -0.053331 -0.058735 0.008353 0.108168 -0.035112 -0.038454 -0.178589 -0.066078 0.008604 0.160329 0.241728 0.032526 -0.350714 -0.208820 0.053184 -0.197912 0.197277 0.103510 0.079401 0.005624 0.069906 0.037100 0.016930 0.082261 -0.194692 0.036293 -0.077058 0.057567 0.039218 0.058993 0.020190 0.144877 0.010556 0.168933 0.150231 -0.047519 -0.056340 0.086981 0.081525 0.024059 -0.230840 0.127780 -0.201880 -0.049640 0.179381 -0.138042 -0.022780 0.136935 -0.114369 -0.006413 -0.013935 0.010557 0.157544 0.069671 -0.009688 -0.140654 0.161945 -0.413283 0.065430 -0.043501 -0.135157 -0.015384 -0.057225 -0.172218 -0.072173 0.063341 0.075455 0.045223 0.041853 0.152662 -0.149923 0.008682 0.023087 0.089188 0.057262 0.051402 0.056711 0.182538 -0.045039 0.028079 -0.056720 0.007471 -0.176569 -0.046382 -0.170725 -0.054314 0.223512 0.094491 -0.032796 -0.074768 0.177444 0.013237 0.080981 -0.149213 -0.131887 0.033460 0.328778 0.192878 -0.288759 0.161065 0.144365 0.051278 0.178421 0.051561 -0.191094 -0.047969 -0.027966 -0.042883 -0.176974 0.041276 0.121581 -0.110872 0.084010 -0.125422 -0.131031 0.019357 0.112892 0.129183 0.064712 -0.124842 -0.125760 -0.084037 0.058274 -0.220994 0.127690 0.044003 0.159186 -0.095985 0.190890 -0.193173 -0.095742 -0.051155 -0.099223 0.037987 -0.006483 0.072475 0.113097 0.254484 -0.135088 -0.132782 -0.067884 -0.051079 -0.077885 0.055884 -0.195482 0.107336 0.202066 0.031359 0.078442 0.191698 0.023770 -0.079807 -0.016293 0.013803 0.004443 -0.017096 -0.100507 0.101659 -0.124385 0.034165 -0.089511 -0.095245 0.145199 0.137449 -0.162689 -0.074014 0.139887 -0.142154 0.121923 0.071827 0.080021 0.116990 0.257427 0.067118 0.069048 0.221674 0.214178 -0.233752 0.042299 0.052264 -0.154138
临时补贴 0.073828 0.010853 0.167482 -0.138362 -0.002051 -0.178219 -0.056635 0.045126 -0.024294 0.134533 -0.010873 0.145131 -0.151986 -0.229198 0.085521 -0.153657 -0.062789 0.298417 0.019168 -0.066189 -0.077084 0.013563 0.134474 -0.041367 -0.050405 -0.220486 -0.079926 0.006780 0.201853 0.296362 0.042314 -0.439432 -0.255433 0.067877 -0.248720 0.247975 0.124369 0.100689 0.007411 0.088791 0.048173 0.020092 0.099665 -0.243969 0.045341 -0.095468 0.075646 0.047879 0.072547 0.023840 0.181198 0.014609 0.212640 0.190294 -0.062653 -0.066792 0.107076 0.100087 0.030438 -0.288171 0.156729 -0.252841 -0.059019 0.219379 -0.168930 -0.027921 0.171267 -0.141680 -0.008660 -0.014641 0.017091 0.199728 0.083873 -0.011806 -0.173902 0.198332 -0.517657 0.080149 -0.050263 -0.172971 -0.021611 -0.072056 -0.217876 -0.089745 0.080489 0.092275 0.056744 0.050843 0.189490 -0.186541 0.009786 0.024987 0.110353 0.067356 0.067149 0.070142 0.228587 -0.056995 0.031340 -0.075167 0.008402 -0.223590 -0.057417 -0.214651 -0.069533 0.281499 0.117966 -0.041404 -0.093175 0.222918 0.015270 0.101499 -0.184545 -0.166958 0.040355 0.409922 0.240407 -0.361445 0.198955 0.180700 0.062910 0.224758 0.062093 -0.239768 -0.058200 -0.030272 -0.051146 -0.223028 0.050720 0.150513 -0.134465 0.106089 -0.157158 -0.165797 0.027170 0.140479 0.159334 0.079418 -0.151035 -0.160511 -0.102545 0.073050 -0.277995 0.157119 0.054093 0.195625 -0.125551 0.237403 -0.240641 -0.120242 -0.062830 -0.122696 0.048125 -0.009235 0.087164 0.142187 0.316281 -0.166161 -0.162768 -0.089052 -0.061072 -0.099195 0.068960 -0.243042 0.137760 0.256537 0.033432 0.097673 0.238695 0.030191 -0.102589 -0.022124 0.015069 0.007808 -0.022425 -0.122733 0.124008 -0.154392 0.038960 -0.112020 -0.119714 0.180045 0.168702 -0.201044 -0.090944 0.174674 -0.176597 0.150340 0.090226 0.099197 0.142905 0.321555 0.084257 0.088972 0.276346 0.267597 -0.288397 0.051423 0.068105 -0.190499
金 0.057164 0.005702 0.125619 -0.106398 -0.001512 -0.137185 -0.045019 0.035523 -0.017889 0.104553 -0.005084 0.111568 -0.113344 -0.176773 0.066748 -0.115612 -0.051614 0.231691 0.014985 -0.054971 -0.057312 0.008571 0.101660 -0.032754 -0.035968 -0.168853 -0.065400 0.005724 0.157882 0.232804 0.033754 -0.338329 -0.200854 0.051101 -0.191608 0.190127 0.097611 0.076107 0.004253 0.068272 0.037000 0.019808 0.075488 -0.189139 0.034188 -0.072822 0.057082 0.040713 0.053500 0.017168 0.139371 0.013432 0.163600 0.143595 -0.045302 -0.053604 0.084481 0.076882 0.022063 -0.222960 0.122853 -0.196801 -0.047094 0.172824 -0.133165 -0.020934 0.131443 -0.107893 -0.006709 -0.015261 0.012801 0.152578 0.066693 -0.010292 -0.137966 0.156196 -0.397109 0.062836 -0.037178 -0.133003 -0.018455 -0.055989 -0.165833 -0.068746 0.064119 0.069690 0.046025 0.040375 0.145728 -0.145025 0.007690 0.019020 0.087510 0.051315 0.052997 0.054124 0.174132 -0.042228 0.027236 -0.055755 0.007779 -0.169790 -0.045298 -0.164729 -0.053771 0.215017 0.091880 -0.029189 -0.070340 0.173304 0.014174 0.074891 -0.143859 -0.127638 0.032067 0.314087 0.184809 -0.277962 0.155737 0.138428 0.047397 0.172713 0.048583 -0.184961 -0.043871 -0.022453 -0.040391 -0.171709 0.037129 0.119709 -0.107066 0.082187 -0.118526 -0.126161 0.021319 0.107891 0.121763 0.058424 -0.118741 -0.121301 -0.082382 0.057004 -0.213800 0.119306 0.041436 0.154181 -0.097620 0.183739 -0.185814 -0.093802 -0.045743 -0.096955 0.038289 -0.004541 0.069487 0.109241 0.244227 -0.127512 -0.124193 -0.067023 -0.048022 -0.076464 0.053766 -0.185213 0.107170 0.197951 0.030022 0.074698 0.186360 0.024396 -0.080398 -0.019084 0.013189 0.003535 -0.014290 -0.095788 0.096096 -0.118264 0.033965 -0.084357 -0.089710 0.137041 0.133275 -0.158413 -0.070238 0.136787 -0.137028 0.115066 0.069652 0.072922 0.113892 0.246080 0.065166 0.065999 0.213782 0.206867 -0.225276 0.042424 0.053078 -0.150704
补贴 0.060028 0.006294 0.132897 -0.109011 -0.000983 -0.141897 -0.045702 0.036785 -0.017443 0.110767 -0.007958 0.115583 -0.119259 -0.184464 0.068032 -0.121146 -0.051036 0.244434 0.015842 -0.053710 -0.061182 0.010248 0.107332 -0.036088 -0.037547 -0.178311 -0.065227 0.007526 0.164153 0.243856 0.034876 -0.353707 -0.206546 0.053396 -0.198989 0.196327 0.102254 0.082461 0.008381 0.071550 0.040475 0.018845 0.081288 -0.196825 0.037110 -0.078279 0.058144 0.041047 0.057331 0.018169 0.147237 0.012598 0.170522 0.151914 -0.049603 -0.056706 0.084313 0.081127 0.020084 -0.228989 0.129536 -0.202140 -0.049672 0.179937 -0.138548 -0.023223 0.135879 -0.116255 -0.007966 -0.012123 0.014547 0.161128 0.067586 -0.010403 -0.144578 0.162375 -0.417583 0.061783 -0.040745 -0.137316 -0.015266 -0.054536 -0.176095 -0.073729 0.064908 0.074973 0.044208 0.043055 0.155159 -0.149914 0.008942 0.021060 0.089325 0.055102 0.054750 0.059634 0.181831 -0.046728 0.028430 -0.060940 0.006715 -0.178784 -0.048784 -0.174979 -0.053063 0.227331 0.095433 -0.029360 -0.072983 0.180354 0.013332 0.079089 -0.148415 -0.135003 0.032382 0.332271 0.191202 -0.293553 0.161860 0.147230 0.051954 0.179484 0.050515 -0.195493 -0.046201 -0.024174 -0.042757 -0.178929 0.042172 0.121861 -0.111111 0.087669 -0.125862 -0.133021 0.018381 0.111558 0.126659 0.064478 -0.126080 -0.128234 -0.083865 0.061930 -0.225300 0.123658 0.044025 0.158672 -0.101780 0.190571 -0.192987 -0.095110 -0.051926 -0.098441 0.038496 -0.004308 0.071311 0.115320 0.257540 -0.136585 -0.130576 -0.070667 -0.049587 -0.079514 0.053693 -0.197601 0.109428 0.206754 0.030369 0.077592 0.195010 0.025416 -0.081777 -0.019369 0.012986 0.003738 -0.016388 -0.102906 0.099410 -0.126810 0.031470 -0.090858 -0.097980 0.141946 0.138312 -0.167270 -0.075174 0.140383 -0.146490 0.118032 0.071377 0.076301 0.118993 0.260614 0.067671 0.069481 0.222635 0.217799 -0.233648 0.044300 0.057370 -0.156800
经济 0.073355 0.009620 0.161931 -0.135294 0.000302 -0.174468 -0.056949 0.045803 -0.024378 0.129738 -0.012410 0.143859 -0.144686 -0.225286 0.084014 -0.147161 -0.062397 0.294812 0.014781 -0.065333 -0.073308 0.015240 0.131221 -0.042025 -0.048018 -0.217601 -0.078491 0.010199 0.202021 0.295921 0.041014 -0.427880 -0.255855 0.062975 -0.241762 0.239357 0.122249 0.100991 0.008327 0.086895 0.043417 0.022383 0.097702 -0.242106 0.045076 -0.096347 0.075112 0.050479 0.070866 0.022951 0.178226 0.012700 0.210390 0.185489 -0.059783 -0.068873 0.103364 0.097342 0.026879 -0.283278 0.153182 -0.245102 -0.058644 0.215625 -0.167030 -0.027912 0.169253 -0.138647 -0.009559 -0.016549 0.015621 0.193919 0.081391 -0.013360 -0.174477 0.194237 -0.508847 0.074858 -0.048587 -0.170290 -0.023766 -0.069414 -0.214321 -0.090088 0.078517 0.090344 0.054227 0.051159 0.186990 -0.184309 0.007607 0.026426 0.108262 0.069698 0.065835 0.070019 0.224506 -0.054823 0.030688 -0.069703 0.010756 -0.216833 -0.054192 -0.210286 -0.068819 0.275092 0.118670 -0.038515 -0.090210 0.219161 0.015583 0.099663 -0.178630 -0.160127 0.037840 0.400556 0.234476 -0.354589 0.197462 0.180556 0.059967 0.220172 0.061102 -0.237752 -0.056310 -0.033601 -0.050871 -0.217574 0.048709 0.152578 -0.133719 0.103693 -0.154064 -0.163194 0.026592 0.136382 0.153518 0.075750 -0.149738 -0.154292 -0.103994 0.069328 -0.271420 0.154655 0.056323 0.193592 -0.121952 0.231219 -0.235889 -0.116382 -0.062471 -0.119169 0.047187 -0.010033 0.087359 0.140163 0.312915 -0.163902 -0.159894 -0.085423 -0.061489 -0.097140 0.064721 -0.241453 0.134271 0.248794 0.035999 0.093172 0.234834 0.027458 -0.100090 -0.021986 0.012694 0.005030 -0.020551 -0.125370 0.124519 -0.153190 0.039774 -0.107968 -0.117897 0.175206 0.167799 -0.198352 -0.086917 0.170322 -0.175989 0.145271 0.090732 0.095794 0.140919 0.313831 0.081611 0.085366 0.269333 0.260773 -0.287462 0.053415 0.067224 -0.187890
儿童 0.065575 0.009035 0.143283 -0.116287 -0.002494 -0.152058 -0.048261 0.041286 -0.018694 0.117061 -0.006578 0.125309 -0.128902 -0.197886 0.074256 -0.131077 -0.057859 0.257529 0.015935 -0.056823 -0.065581 0.011676 0.114364 -0.033666 -0.041946 -0.187307 -0.071094 0.008003 0.176248 0.257902 0.035080 -0.379390 -0.220175 0.054605 -0.214960 0.210345 0.109137 0.085206 0.006525 0.077854 0.042309 0.019618 0.083952 -0.211142 0.038917 -0.081273 0.066369 0.040702 0.061665 0.018419 0.156057 0.016050 0.182128 0.161011 -0.050278 -0.056638 0.091496 0.084660 0.024476 -0.247124 0.135966 -0.218755 -0.052288 0.188001 -0.147491 -0.025931 0.147525 -0.120489 -0.006867 -0.013326 0.015704 0.172707 0.071012 -0.010235 -0.151166 0.173714 -0.444297 0.066313 -0.046713 -0.149808 -0.017490 -0.058616 -0.187861 -0.079259 0.070947 0.082661 0.047376 0.044336 0.165321 -0.160592 0.007109 0.020665 0.094258 0.058486 0.057296 0.059582 0.197747 -0.049697 0.027022 -0.065041 0.010311 -0.192120 -0.048078 -0.185384 -0.058608 0.243621 0.104595 -0.033651 -0.080524 0.190962 0.014318 0.085510 -0.160235 -0.143877 0.034209 0.349812 0.207205 -0.312174 0.175067 0.154148 0.054194 0.189995 0.057701 -0.207182 -0.053271 -0.027954 -0.045013 -0.189504 0.041751 0.130443 -0.115619 0.090904 -0.134644 -0.140512 0.021167 0.119590 0.136486 0.066085 -0.131057 -0.137267 -0.090148 0.062671 -0.237425 0.132324 0.048847 0.169999 -0.108466 0.200898 -0.205512 -0.102540 -0.054758 -0.107182 0.038656 -0.005129 0.074102 0.120974 0.276515 -0.144277 -0.140425 -0.074941 -0.050902 -0.083011 0.060326 -0.211041 0.117943 0.220792 0.030991 0.082275 0.207690 0.025124 -0.089107 -0.018835 0.013572 0.004480 -0.017708 -0.109508 0.106378 -0.134280 0.033923 -0.096340 -0.102506 0.152787 0.144975 -0.175743 -0.077286 0.149910 -0.152786 0.126511 0.079853 0.081365 0.123333 0.277628 0.071449 0.075685 0.234261 0.228167 -0.252190 0.045036 0.057126 -0.162654
县级 0.060824 0.007056 0.139062 -0.114449 -0.003052 -0.143294 -0.045295 0.038160 -0.021200 0.110748 -0.010168 0.117844 -0.123723 -0.189717 0.071047 -0.126885 -0.050996 0.249825 0.015674 -0.057485 -0.061408 0.011188 0.108964 -0.035869 -0.041717 -0.179924 -0.068125 0.007366 0.167934 0.245551 0.033895 -0.360225 -0.212098 0.052054 -0.204766 0.201078 0.105411 0.082016 0.007952 0.072163 0.040221 0.017483 0.082559 -0.204135 0.037350 -0.077641 0.061089 0.043985 0.058972 0.016887 0.148987 0.014441 0.178174 0.156978 -0.048443 -0.059098 0.089749 0.084602 0.024819 -0.237575 0.128350 -0.205979 -0.052303 0.184079 -0.142440 -0.023271 0.140652 -0.118746 -0.008351 -0.014051 0.011727 0.161319 0.070039 -0.007492 -0.146311 0.164244 -0.426152 0.064295 -0.044468 -0.142460 -0.015266 -0.055284 -0.176936 -0.074049 0.063455 0.074616 0.044679 0.041009 0.158677 -0.151102 0.005111 0.019932 0.093157 0.055784 0.054609 0.056959 0.188886 -0.049457 0.024391 -0.058421 0.005180 -0.182724 -0.050566 -0.179161 -0.056120 0.229685 0.100786 -0.029600 -0.073649 0.183819 0.011439 0.083245 -0.151741 -0.135026 0.035033 0.339435 0.195504 -0.295553 0.167695 0.150473 0.050875 0.184564 0.053788 -0.199736 -0.048714 -0.026945 -0.044891 -0.180479 0.040986 0.125013 -0.112871 0.088574 -0.126727 -0.135500 0.021260 0.116875 0.129317 0.063704 -0.124535 -0.129345 -0.088821 0.061372 -0.227490 0.129661 0.044172 0.162470 -0.103570 0.193643 -0.197432 -0.096255 -0.053121 -0.101931 0.039085 -0.008383 0.071458 0.119128 0.261084 -0.137959 -0.134186 -0.074616 -0.052640 -0.083350 0.058297 -0.198408 0.111937 0.207998 0.031123 0.080445 0.196016 0.023997 -0.082538 -0.020963 0.010888 0.006040 -0.019252 -0.100825 0.105357 -0.127149 0.031737 -0.093859 -0.097357 0.146137 0.138636 -0.168885 -0.074524 0.144380 -0.148764 0.124005 0.072217 0.078368 0.121266 0.264466 0.070906 0.070170 0.224547 0.219487 -0.240456 0.043484 0.056051 -0.156049
市本级 0.069370 0.006650 0.156376 -0.127513 -0.001333 -0.165195 -0.051070 0.043027 -0.020058 0.123560 -0.007914 0.135212 -0.141821 -0.212067 0.080643 -0.141106 -0.060323 0.282363 0.015289 -0.061698 -0.069279 0.013810 0.123929 -0.040954 -0.043846 -0.204360 -0.078054 0.006381 0.188232 0.281265 0.040075 -0.410122 -0.241977 0.062053 -0.231343 0.229754 0.115892 0.095934 0.006835 0.082698 0.044527 0.019144 0.095245 -0.227592 0.041998 -0.087517 0.069788 0.045961 0.068472 0.023473 0.167813 0.014024 0.200949 0.174535 -0.056863 -0.066789 0.100061 0.091829 0.026093 -0.268849 0.145323 -0.237735 -0.057746 0.205448 -0.159737 -0.029593 0.161166 -0.132942 -0.009211 -0.018525 0.013736 0.184768 0.079057 -0.008111 -0.164839 0.186876 -0.486103 0.076260 -0.050130 -0.161641 -0.018628 -0.064492 -0.204732 -0.086805 0.076194 0.087219 0.051625 0.047980 0.179010 -0.173286 0.007715 0.025421 0.101685 0.067252 0.063347 0.064999 0.213919 -0.054693 0.031241 -0.070042 0.006298 -0.208920 -0.053430 -0.199612 -0.062447 0.263085 0.113116 -0.036140 -0.084383 0.209600 0.013647 0.092717 -0.174146 -0.155984 0.036393 0.381507 0.225857 -0.337663 0.187921 0.172373 0.057071 0.208826 0.061836 -0.225911 -0.056577 -0.029129 -0.049357 -0.206023 0.049257 0.141528 -0.128839 0.101421 -0.144816 -0.154855 0.024592 0.131234 0.148148 0.071615 -0.143012 -0.146748 -0.099672 0.068502 -0.257014 0.143805 0.050836 0.185141 -0.112674 0.222034 -0.225543 -0.111621 -0.059077 -0.112326 0.044962 -0.007134 0.080790 0.132158 0.297729 -0.156685 -0.155609 -0.081488 -0.058146 -0.094730 0.061568 -0.229280 0.126064 0.240243 0.033385 0.090764 0.224542 0.028392 -0.096285 -0.020955 0.014722 0.008609 -0.020867 -0.119322 0.117897 -0.144354 0.036736 -0.103805 -0.112709 0.169254 0.161068 -0.192523 -0.082949 0.161671 -0.165494 0.140663 0.085275 0.091204 0.133377 0.300522 0.079158 0.083998 0.256812 0.249280 -0.273956 0.048668 0.064077 -0.180903
及 0.072799 0.009971 0.159139 -0.128230 -0.000561 -0.166176 -0.055846 0.041947 -0.023395 0.128164 -0.012453 0.137937 -0.140569 -0.214560 0.081799 -0.141645 -0.058655 0.283391 0.017456 -0.065392 -0.069595 0.014475 0.127227 -0.036711 -0.046419 -0.207852 -0.074832 0.006836 0.192514 0.282644 0.038467 -0.410036 -0.244556 0.061323 -0.232423 0.233115 0.118567 0.093747 0.006640 0.085721 0.044818 0.022317 0.093691 -0.232519 0.043784 -0.089397 0.068411 0.046745 0.067024 0.023946 0.169840 0.013341 0.199199 0.178258 -0.055943 -0.064434 0.101285 0.094597 0.025428 -0.270418 0.149003 -0.238478 -0.057071 0.209401 -0.160737 -0.028726 0.160978 -0.134927 -0.009780 -0.017506 0.014745 0.186735 0.078584 -0.010490 -0.166374 0.188761 -0.488682 0.075962 -0.049780 -0.160753 -0.020628 -0.068039 -0.206741 -0.085912 0.075528 0.088728 0.054338 0.049738 0.178929 -0.172979 0.008592 0.025265 0.103732 0.062818 0.062391 0.064833 0.215699 -0.052218 0.028682 -0.069139 0.007765 -0.205660 -0.052038 -0.200462 -0.061005 0.261422 0.114462 -0.035731 -0.084431 0.211694 0.017233 0.091420 -0.170207 -0.157613 0.039716 0.383114 0.222409 -0.340806 0.190834 0.173505 0.060229 0.210077 0.059128 -0.228100 -0.055346 -0.028213 -0.048061 -0.207153 0.044974 0.142142 -0.128058 0.100098 -0.147470 -0.153983 0.025208 0.129185 0.149439 0.072765 -0.142713 -0.151954 -0.100641 0.069133 -0.262229 0.148753 0.050690 0.187654 -0.116435 0.218548 -0.224800 -0.110487 -0.056614 -0.114436 0.045518 -0.008317 0.084454 0.132506 0.299662 -0.155998 -0.152788 -0.081326 -0.057354 -0.094532 0.062556 -0.230406 0.126541 0.241197 0.034819 0.087307 0.223242 0.027987 -0.094352 -0.020544 0.014814 0.004316 -0.016565 -0.120207 0.119441 -0.147865 0.038185 -0.106453 -0.113912 0.169384 0.159177 -0.191634 -0.084296 0.166060 -0.166972 0.140684 0.085607 0.093905 0.135318 0.303899 0.076652 0.082105 0.257056 0.248415 -0.273846 0.051211 0.065375 -0.181376
国家 0.075234 0.009266 0.172007 -0.140037 -0.002661 -0.180568 -0.059255 0.047571 -0.023656 0.139196 -0.012999 0.150087 -0.152018 -0.231347 0.086210 -0.153514 -0.067171 0.306226 0.015241 -0.071914 -0.076417 0.012491 0.136935 -0.042422 -0.047588 -0.227458 -0.084172 0.007841 0.207826 0.308028 0.043193 -0.448440 -0.261938 0.065747 -0.252640 0.253501 0.127111 0.103407 0.006658 0.090127 0.046151 0.020168 0.100908 -0.250085 0.046082 -0.096732 0.077299 0.050310 0.072503 0.022870 0.182476 0.018542 0.216006 0.191525 -0.064282 -0.070779 0.108663 0.103227 0.029649 -0.291722 0.162093 -0.256724 -0.060647 0.224851 -0.172800 -0.028518 0.177262 -0.146525 -0.008203 -0.017482 0.017210 0.201409 0.088174 -0.013450 -0.178662 0.205626 -0.531353 0.080670 -0.050935 -0.177103 -0.023955 -0.072553 -0.220694 -0.094683 0.080808 0.094034 0.057819 0.053693 0.194447 -0.191641 0.009674 0.027928 0.111164 0.070070 0.069275 0.070698 0.235244 -0.060485 0.034996 -0.075571 0.010555 -0.227860 -0.058702 -0.220012 -0.068388 0.289713 0.120687 -0.041299 -0.095053 0.230662 0.016552 0.100966 -0.189468 -0.171498 0.043975 0.419963 0.245765 -0.367442 0.204788 0.184258 0.065397 0.227711 0.063981 -0.246008 -0.060865 -0.031892 -0.056246 -0.226293 0.053630 0.155464 -0.139600 0.108587 -0.158736 -0.165317 0.024410 0.141776 0.161519 0.080297 -0.159462 -0.160662 -0.109990 0.074398 -0.282775 0.161739 0.055165 0.203086 -0.125024 0.241691 -0.247142 -0.122628 -0.062936 -0.122806 0.050538 -0.008574 0.090183 0.143802 0.327757 -0.168119 -0.170011 -0.091247 -0.064913 -0.102760 0.068443 -0.251520 0.138939 0.259825 0.036725 0.097053 0.243940 0.033354 -0.103522 -0.025811 0.012117 0.007009 -0.020723 -0.127256 0.127618 -0.162351 0.043596 -0.112874 -0.121731 0.183529 0.175206 -0.210278 -0.090879 0.177293 -0.184542 0.154520 0.092091 0.101665 0.149017 0.327401 0.084799 0.088071 0.282986 0.275226 -0.297429 0.053506 0.068189 -0.195384
临时 0.065405 0.007278 0.147063 -0.121552 -0.004130 -0.156121 -0.048885 0.042356 -0.020069 0.117704 -0.006424 0.127665 -0.134369 -0.199978 0.073628 -0.133159 -0.056759 0.268614 0.014090 -0.058584 -0.065523 0.013190 0.120144 -0.036455 -0.042001 -0.193038 -0.069640 0.010790 0.179539 0.264833 0.037004 -0.389660 -0.230030 0.057508 -0.216917 0.215552 0.109700 0.087864 0.008916 0.078103 0.044383 0.019481 0.086708 -0.219498 0.041346 -0.083619 0.063468 0.043583 0.065339 0.019993 0.157383 0.012058 0.188519 0.165935 -0.053803 -0.063038 0.096570 0.086850 0.026091 -0.253567 0.139785 -0.223208 -0.055796 0.193994 -0.152464 -0.027568 0.149381 -0.128504 -0.008994 -0.014266 0.013483 0.177886 0.073560 -0.011280 -0.158153 0.175013 -0.458348 0.070159 -0.044359 -0.152183 -0.017251 -0.061082 -0.191672 -0.078305 0.069340 0.084919 0.051708 0.048420 0.168122 -0.164405 0.010065 0.022147 0.099967 0.059046 0.059283 0.061571 0.201614 -0.048290 0.029474 -0.064682 0.008120 -0.198387 -0.052444 -0.193153 -0.058413 0.249640 0.107755 -0.034129 -0.082927 0.195402 0.016197 0.089260 -0.165103 -0.144769 0.036155 0.364151 0.213873 -0.321427 0.178521 0.159658 0.055441 0.196767 0.057903 -0.213961 -0.054184 -0.028197 -0.046463 -0.194490 0.045240 0.134740 -0.117820 0.091297 -0.136028 -0.145783 0.024315 0.122559 0.138876 0.068217 -0.133436 -0.142127 -0.091160 0.065174 -0.244794 0.138041 0.047614 0.176045 -0.106088 0.206581 -0.210794 -0.105658 -0.057979 -0.107088 0.039494 -0.007641 0.076729 0.126485 0.281501 -0.145067 -0.147565 -0.076222 -0.052315 -0.086374 0.061043 -0.217435 0.117966 0.223865 0.030142 0.082818 0.212486 0.027196 -0.088053 -0.021250 0.013835 0.007131 -0.016347 -0.110531 0.111093 -0.138719 0.033327 -0.096742 -0.104970 0.156545 0.153985 -0.180220 -0.078883 0.152320 -0.159641 0.131491 0.081981 0.083301 0.126866 0.285899 0.072330 0.080331 0.240264 0.235985 -0.257668 0.043829 0.062276 -0.171287
扶助 0.082416 0.011758 0.187678 -0.152359 -0.001489 -0.193770 -0.061505 0.053703 -0.023321 0.146783 -0.009853 0.163238 -0.166829 -0.253170 0.095639 -0.167258 -0.073177 0.336072 0.019593 -0.076924 -0.086617 0.017353 0.150414 -0.046475 -0.052934 -0.242451 -0.088455 0.012591 0.227500 0.333827 0.044977 -0.488950 -0.285347 0.074879 -0.275740 0.273413 0.141650 0.113609 0.007885 0.100251 0.052131 0.024775 0.113253 -0.275844 0.050052 -0.106987 0.083074 0.054198 0.077988 0.028072 0.201795 0.018277 0.239443 0.210212 -0.070465 -0.078157 0.116228 0.112265 0.030246 -0.316911 0.174992 -0.283648 -0.065643 0.243648 -0.189526 -0.033779 0.193320 -0.160343 -0.009224 -0.021101 0.016487 0.220862 0.096290 -0.012173 -0.196717 0.223245 -0.576655 0.089502 -0.059728 -0.188934 -0.022835 -0.080351 -0.242898 -0.102739 0.087731 0.103045 0.064852 0.056501 0.213714 -0.207603 0.009753 0.027123 0.120450 0.076405 0.073329 0.080707 0.253492 -0.061799 0.038577 -0.081411 0.011563 -0.245999 -0.062921 -0.239024 -0.075572 0.313742 0.135871 -0.043341 -0.100770 0.250171 0.017593 0.108706 -0.204890 -0.182481 0.045589 0.454374 0.268690 -0.402251 0.222502 0.204268 0.066715 0.249059 0.068256 -0.267891 -0.065265 -0.036380 -0.060307 -0.248566 0.054891 0.169399 -0.151215 0.116663 -0.170459 -0.180440 0.030384 0.154637 0.179149 0.085871 -0.170188 -0.176452 -0.115133 0.084039 -0.311653 0.174092 0.060914 0.220420 -0.138217 0.262036 -0.266249 -0.130922 -0.071824 -0.136396 0.053900 -0.007298 0.096276 0.157950 0.354369 -0.185962 -0.180748 -0.096261 -0.069931 -0.111473 0.075988 -0.273092 0.149231 0.286819 0.041120 0.104723 0.267414 0.036679 -0.114186 -0.027639 0.014073 0.008833 -0.023376 -0.141249 0.138572 -0.175615 0.045569 -0.127052 -0.133819 0.199520 0.190806 -0.227755 -0.100423 0.196557 -0.195976 0.166356 0.099446 0.109851 0.163607 0.358551 0.090374 0.097265 0.302819 0.296777 -0.324528 0.060450 0.078121 -0.213510
基金 0.068573 0.008366 0.151500 -0.123959 -0.002221 -0.162448 -0.052600 0.040842 -0.022003 0.123810 -0.009010 0.135337 -0.138501 -0.209093 0.079063 -0.137092 -0.060540 0.276461 0.013622 -0.064447 -0.067997 0.011797 0.122992 -0.036306 -0.046061 -0.203214 -0.075855 0.009574 0.187334 0.273797 0.039187 -0.399061 -0.237843 0.060975 -0.225743 0.222368 0.117371 0.092414 0.009222 0.082695 0.042600 0.022063 0.089339 -0.226485 0.039206 -0.090470 0.066373 0.045950 0.064290 0.019843 0.162834 0.015547 0.197045 0.173210 -0.054659 -0.063779 0.096518 0.092505 0.028249 -0.260819 0.142759 -0.232326 -0.058238 0.203746 -0.159021 -0.025664 0.158623 -0.131364 -0.009903 -0.013730 0.016484 0.180206 0.077881 -0.008796 -0.163840 0.183576 -0.476872 0.072664 -0.048208 -0.157636 -0.017794 -0.062563 -0.199150 -0.081374 0.074276 0.087654 0.052988 0.045577 0.175308 -0.171262 0.006831 0.026391 0.102160 0.062914 0.063270 0.066537 0.210756 -0.051789 0.030308 -0.068156 0.010162 -0.201269 -0.053943 -0.199227 -0.060231 0.257767 0.110112 -0.036101 -0.085739 0.205404 0.017737 0.092449 -0.165902 -0.154297 0.036356 0.373882 0.220975 -0.329387 0.186657 0.165817 0.056761 0.203825 0.056332 -0.221240 -0.055724 -0.029502 -0.048914 -0.203753 0.047923 0.138488 -0.122219 0.095037 -0.143397 -0.148893 0.022779 0.127965 0.147933 0.070513 -0.139290 -0.145950 -0.098093 0.069035 -0.255492 0.142682 0.052286 0.178656 -0.111041 0.213126 -0.217664 -0.108964 -0.054892 -0.110834 0.045086 -0.007950 0.081249 0.128467 0.292858 -0.152594 -0.150880 -0.082510 -0.054173 -0.090239 0.063768 -0.222155 0.125918 0.232669 0.031880 0.085366 0.217809 0.028730 -0.092339 -0.023241 0.011715 0.007147 -0.020487 -0.114952 0.111914 -0.145866 0.034588 -0.104998 -0.111406 0.161200 0.155792 -0.186449 -0.083674 0.158908 -0.163103 0.135436 0.082534 0.087114 0.130699 0.292648 0.074277 0.078490 0.248960 0.243635 -0.265722 0.049044 0.062318 -0.172543
特困 0.078204 0.012690 0.171405 -0.139390 -0.002381 -0.180844 -0.058607 0.047316 -0.025120 0.138821 -0.009104 0.148557 -0.154766 -0.234196 0.088109 -0.155184 -0.066289 0.309786 0.014647 -0.069022 -0.080108 0.014801 0.135892 -0.042439 -0.050404 -0.227393 -0.080940 0.007954 0.206488 0.304218 0.042286 -0.450787 -0.266707 0.065120 -0.253639 0.253966 0.130478 0.105488 0.008283 0.089932 0.048071 0.021108 0.104043 -0.253031 0.046487 -0.098065 0.074767 0.052978 0.072463 0.023362 0.182669 0.014868 0.220711 0.191114 -0.065894 -0.071567 0.109461 0.100460 0.029160 -0.293321 0.158628 -0.259425 -0.062067 0.227908 -0.174353 -0.028468 0.177637 -0.147487 -0.012105 -0.019601 0.019253 0.205097 0.087243 -0.011718 -0.179506 0.207049 -0.528639 0.081337 -0.054259 -0.175042 -0.021774 -0.070884 -0.220904 -0.094115 0.082999 0.095274 0.056949 0.051840 0.197124 -0.188299 0.009299 0.025788 0.115331 0.068928 0.068628 0.072803 0.232117 -0.058505 0.035467 -0.072718 0.008387 -0.228790 -0.061539 -0.222781 -0.066675 0.288548 0.119877 -0.041122 -0.093987 0.227821 0.017774 0.102447 -0.190278 -0.168645 0.039520 0.420831 0.245988 -0.371192 0.204391 0.187008 0.060789 0.228179 0.063705 -0.248431 -0.059210 -0.031777 -0.056433 -0.226752 0.052920 0.154998 -0.139538 0.110755 -0.157447 -0.169881 0.026904 0.143601 0.161962 0.081776 -0.155291 -0.161315 -0.106064 0.073154 -0.285614 0.161983 0.058079 0.203592 -0.123996 0.241079 -0.244238 -0.122920 -0.062890 -0.127429 0.048442 -0.007143 0.090351 0.145046 0.327900 -0.171692 -0.170199 -0.091064 -0.063165 -0.102334 0.069905 -0.250447 0.138271 0.262401 0.039418 0.097703 0.246019 0.030363 -0.103557 -0.021950 0.013475 0.007375 -0.023433 -0.128162 0.128237 -0.160834 0.040906 -0.114389 -0.121223 0.184572 0.176279 -0.210059 -0.094209 0.180889 -0.184276 0.154904 0.094193 0.100562 0.149872 0.330717 0.084429 0.090851 0.279480 0.275334 -0.295613 0.052355 0.071348 -0.195970
公益性 0.059751 0.005293 0.134338 -0.109002 -0.000045 -0.141092 -0.046213 0.037491 -0.019280 0.110796 -0.009599 0.118662 -0.119783 -0.185241 0.068235 -0.122720 -0.052283 0.244977 0.012987 -0.054103 -0.064407 0.012200 0.105446 -0.035829 -0.041350 -0.177893 -0.066517 0.008913 0.164034 0.242491 0.031963 -0.352103 -0.206872 0.053032 -0.202364 0.198421 0.102160 0.083192 0.006597 0.073619 0.036607 0.016986 0.081337 -0.199180 0.038735 -0.077327 0.058907 0.037779 0.056479 0.019447 0.144675 0.014683 0.170632 0.153226 -0.048238 -0.056050 0.088361 0.079621 0.020801 -0.233117 0.125945 -0.201482 -0.047305 0.179962 -0.137962 -0.022765 0.136753 -0.116783 -0.008939 -0.013210 0.015466 0.159079 0.066182 -0.009742 -0.141595 0.160069 -0.419944 0.064770 -0.039160 -0.136662 -0.015912 -0.057724 -0.174024 -0.074001 0.063819 0.075815 0.044020 0.040544 0.156349 -0.148102 0.006536 0.022225 0.091790 0.057470 0.053448 0.057902 0.182997 -0.045611 0.028237 -0.059382 0.010320 -0.179792 -0.049028 -0.176140 -0.056539 0.226033 0.095527 -0.031950 -0.073763 0.180236 0.011565 0.078207 -0.148359 -0.132741 0.034015 0.329488 0.194630 -0.293640 0.165044 0.145618 0.051197 0.178784 0.050520 -0.194411 -0.046787 -0.025304 -0.043315 -0.181561 0.042663 0.123634 -0.111143 0.087184 -0.124302 -0.130459 0.021631 0.111733 0.126090 0.061558 -0.124114 -0.126261 -0.083101 0.058183 -0.226850 0.126560 0.043708 0.161901 -0.100671 0.189602 -0.195683 -0.096073 -0.050978 -0.098586 0.040176 -0.007171 0.073133 0.115846 0.258116 -0.135786 -0.135095 -0.069598 -0.048117 -0.082223 0.053000 -0.195715 0.110529 0.204101 0.031825 0.079080 0.191645 0.025825 -0.082622 -0.016937 0.010728 0.006448 -0.016770 -0.101182 0.099517 -0.124258 0.032612 -0.088819 -0.096330 0.145290 0.138035 -0.166148 -0.070386 0.140901 -0.142285 0.119433 0.073596 0.079254 0.115397 0.260397 0.068255 0.071470 0.221569 0.216804 -0.234168 0.040857 0.056899 -0.153651
一次性 0.047123 0.004592 0.105288 -0.084214 0.000231 -0.113067 -0.036850 0.029821 -0.016847 0.086597 -0.008642 0.091922 -0.096800 -0.142805 0.056527 -0.097098 -0.042632 0.188255 0.009873 -0.045324 -0.048107 0.010598 0.085998 -0.028698 -0.029392 -0.137571 -0.051524 0.003909 0.129102 0.187102 0.024447 -0.274874 -0.162908 0.041025 -0.156809 0.154928 0.078884 0.062265 0.006963 0.054385 0.027466 0.014387 0.062823 -0.154188 0.028337 -0.060419 0.044840 0.030874 0.045743 0.016188 0.113557 0.008251 0.135679 0.120721 -0.040385 -0.043004 0.067821 0.065550 0.020304 -0.178863 0.100687 -0.156673 -0.040878 0.138297 -0.106025 -0.018516 0.109383 -0.092000 -0.003873 -0.012409 0.012105 0.127100 0.051910 -0.009582 -0.113125 0.128471 -0.328253 0.048909 -0.030948 -0.110769 -0.012601 -0.045596 -0.138514 -0.056989 0.051643 0.060822 0.038589 0.033208 0.121906 -0.115303 0.003063 0.018828 0.071533 0.043566 0.042130 0.046614 0.142361 -0.036925 0.022018 -0.046690 0.005978 -0.137900 -0.036156 -0.133983 -0.043331 0.176155 0.075631 -0.024071 -0.055213 0.141890 0.007774 0.065110 -0.118410 -0.104175 0.025567 0.257670 0.148367 -0.228027 0.125995 0.116433 0.040234 0.141028 0.041332 -0.153915 -0.039478 -0.018930 -0.033300 -0.142342 0.031868 0.098523 -0.086548 0.067702 -0.099315 -0.103011 0.016581 0.087349 0.099379 0.048965 -0.096854 -0.100045 -0.065973 0.048501 -0.173044 0.096811 0.034984 0.125061 -0.078500 0.148551 -0.152390 -0.072532 -0.039940 -0.077873 0.027592 -0.007657 0.058370 0.091807 0.200111 -0.107495 -0.105581 -0.055993 -0.041151 -0.063121 0.043378 -0.153759 0.083741 0.162832 0.022917 0.062731 0.151879 0.018057 -0.061084 -0.012592 0.008773 0.002015 -0.014026 -0.078102 0.076560 -0.099129 0.026570 -0.068659 -0.074908 0.111092 0.109814 -0.129955 -0.057662 0.109775 -0.111655 0.095967 0.057876 0.058822 0.090097 0.200269 0.053151 0.056581 0.170987 0.168367 -0.181237 0.030541 0.044222 -0.118189
创业 0.073279 0.006863 0.153904 -0.128824 -0.003276 -0.162842 -0.054575 0.043560 -0.021078 0.124435 -0.008749 0.136676 -0.138346 -0.215242 0.083129 -0.142985 -0.060222 0.282348 0.013646 -0.066216 -0.074114 0.013987 0.122750 -0.041391 -0.047039 -0.205137 -0.076886 0.010405 0.191795 0.278467 0.040170 -0.412159 -0.243419 0.062588 -0.231665 0.230463 0.117503 0.095191 0.008986 0.084719 0.042680 0.021794 0.092321 -0.229422 0.041679 -0.091709 0.069921 0.048464 0.065125 0.021528 0.171130 0.015580 0.200129 0.176522 -0.058357 -0.064970 0.101624 0.095011 0.024621 -0.267876 0.149172 -0.234252 -0.059774 0.209539 -0.158764 -0.024956 0.162148 -0.133539 -0.010396 -0.017182 0.016887 0.184689 0.081694 -0.008191 -0.167249 0.189503 -0.483903 0.076323 -0.046245 -0.160629 -0.020592 -0.067588 -0.203988 -0.085272 0.072546 0.090065 0.051800 0.046363 0.179783 -0.174222 0.007972 0.024937 0.105050 0.064755 0.060114 0.068181 0.212056 -0.055468 0.031085 -0.069691 0.007728 -0.207907 -0.054579 -0.199696 -0.062345 0.260830 0.114104 -0.036809 -0.085663 0.209442 0.015572 0.094118 -0.170247 -0.153946 0.038114 0.385713 0.225137 -0.340453 0.189317 0.173087 0.056596 0.211858 0.059307 -0.224708 -0.053672 -0.027827 -0.049332 -0.209835 0.048460 0.141870 -0.124745 0.096735 -0.146591 -0.152531 0.024087 0.128611 0.148692 0.071026 -0.146474 -0.150045 -0.100343 0.071325 -0.258350 0.144836 0.051676 0.183501 -0.118029 0.220142 -0.225709 -0.112638 -0.057755 -0.116438 0.042794 -0.008462 0.085298 0.133301 0.296149 -0.157171 -0.152850 -0.081366 -0.058139 -0.091246 0.065824 -0.229605 0.127432 0.240180 0.033088 0.089364 0.223699 0.029543 -0.092425 -0.020765 0.014731 0.003745 -0.017127 -0.115356 0.115917 -0.147542 0.036779 -0.106576 -0.114851 0.164995 0.158565 -0.190104 -0.086886 0.163595 -0.164618 0.139334 0.083568 0.089833 0.134858 0.302044 0.076147 0.083231 0.256164 0.252125 -0.270943 0.048492 0.065687 -0.181412
退役 0.069817 0.008107 0.154437 -0.129978 -0.001701 -0.167100 -0.054519 0.045641 -0.019438 0.125584 -0.007352 0.135284 -0.138569 -0.212630 0.078956 -0.141319 -0.063251 0.281178 0.016234 -0.063850 -0.071186 0.010844 0.125724 -0.037454 -0.043901 -0.203680 -0.077701 0.008772 0.187965 0.277335 0.040138 -0.412303 -0.243213 0.063066 -0.234155 0.228412 0.117327 0.095837 0.007031 0.083342 0.044534 0.019480 0.092261 -0.227919 0.042859 -0.091271 0.071738 0.048322 0.065473 0.020087 0.169537 0.012555 0.201569 0.178633 -0.058146 -0.064993 0.100339 0.092425 0.027978 -0.266693 0.147158 -0.236027 -0.059490 0.207501 -0.160882 -0.025553 0.160319 -0.134678 -0.010017 -0.016003 0.017388 0.187739 0.078937 -0.008364 -0.167609 0.187434 -0.485097 0.074108 -0.049885 -0.161978 -0.022440 -0.064443 -0.203594 -0.083672 0.073526 0.087536 0.054846 0.047284 0.179071 -0.174849 0.009866 0.023098 0.105180 0.065461 0.060079 0.064490 0.213281 -0.051800 0.030240 -0.067094 0.007279 -0.205846 -0.056300 -0.199211 -0.063488 0.262595 0.112004 -0.036258 -0.085625 0.209582 0.016917 0.091320 -0.173651 -0.156458 0.039236 0.380905 0.225334 -0.337024 0.189527 0.169447 0.056876 0.206976 0.060161 -0.223398 -0.056325 -0.029538 -0.048805 -0.209286 0.047837 0.144554 -0.128869 0.099362 -0.147098 -0.155041 0.025058 0.129148 0.147614 0.073712 -0.144197 -0.146374 -0.098588 0.069494 -0.260706 0.144956 0.051599 0.184076 -0.114968 0.220756 -0.225000 -0.109176 -0.060107 -0.113516 0.043165 -0.006226 0.085184 0.135725 0.300131 -0.155621 -0.152484 -0.082470 -0.055818 -0.093996 0.062598 -0.226766 0.125722 0.236492 0.031953 0.091470 0.223263 0.029276 -0.092021 -0.020490 0.013990 0.005555 -0.020427 -0.116694 0.118610 -0.146636 0.035622 -0.105539 -0.110025 0.168399 0.159100 -0.190537 -0.084962 0.162643 -0.165705 0.138845 0.084810 0.089164 0.135127 0.297973 0.076553 0.084223 0.259578 0.248986 -0.272989 0.051096 0.066049 -0.177715
大学生 0.064126 0.008108 0.140459 -0.116893 -0.000950 -0.148912 -0.048083 0.039716 -0.021864 0.114262 -0.010997 0.124244 -0.127903 -0.195375 0.075697 -0.129373 -0.055818 0.258868 0.012362 -0.056805 -0.067833 0.012209 0.115843 -0.033892 -0.040749 -0.191300 -0.070423 0.010265 0.174399 0.256842 0.034876 -0.378496 -0.221737 0.055564 -0.211526 0.208626 0.110541 0.085258 0.007871 0.076549 0.040132 0.021668 0.086548 -0.208369 0.037530 -0.084376 0.061537 0.045482 0.062513 0.020940 0.156832 0.015736 0.184892 0.163591 -0.052404 -0.061009 0.094069 0.083838 0.021992 -0.247195 0.137043 -0.217615 -0.053431 0.190298 -0.145466 -0.023328 0.148818 -0.122058 -0.009389 -0.014802 0.012893 0.171989 0.075278 -0.009812 -0.150809 0.171608 -0.446350 0.067814 -0.042476 -0.146273 -0.016860 -0.059664 -0.186225 -0.079801 0.068823 0.082491 0.050636 0.045512 0.164189 -0.156486 0.007267 0.023169 0.093259 0.059225 0.058382 0.060083 0.198003 -0.051178 0.028792 -0.061948 0.008182 -0.190413 -0.049879 -0.184348 -0.057438 0.242085 0.101403 -0.032808 -0.075841 0.192294 0.011550 0.086398 -0.159702 -0.142611 0.035164 0.353222 0.205352 -0.307786 0.174247 0.156401 0.050249 0.192771 0.053874 -0.208966 -0.051057 -0.027509 -0.043692 -0.189839 0.042355 0.130247 -0.118080 0.093131 -0.131500 -0.141510 0.019871 0.120290 0.133754 0.068736 -0.131160 -0.134163 -0.088655 0.064573 -0.235795 0.131480 0.047500 0.171706 -0.107265 0.203879 -0.205206 -0.101489 -0.053972 -0.103841 0.041868 -0.008419 0.078479 0.120572 0.275729 -0.143059 -0.140749 -0.077743 -0.051795 -0.086662 0.060763 -0.208778 0.115607 0.220463 0.031314 0.084112 0.206519 0.027185 -0.086541 -0.019096 0.014156 0.006024 -0.017773 -0.106611 0.109762 -0.135356 0.034426 -0.098029 -0.102559 0.150947 0.146237 -0.176636 -0.078170 0.149729 -0.154858 0.128068 0.077342 0.081718 0.125034 0.277168 0.070106 0.073055 0.235080 0.228829 -0.247402 0.043793 0.058033 -0.164359
奖励 0.065132 0.008339 0.145158 -0.118014 0.000088 -0.153342 -0.049609 0.040194 -0.019904 0.115531 -0.010446 0.125843 -0.128550 -0.196871 0.071696 -0.128017 -0.057994 0.260126 0.015204 -0.060660 -0.068374 0.012576 0.114820 -0.033604 -0.040472 -0.188923 -0.070416 0.008375 0.174699 0.257409 0.037496 -0.378467 -0.223884 0.059345 -0.212431 0.213515 0.110895 0.087628 0.009486 0.079280 0.042839 0.019315 0.085077 -0.211572 0.040327 -0.082887 0.063347 0.040811 0.064077 0.020111 0.157152 0.010636 0.184962 0.159557 -0.051609 -0.060187 0.090594 0.088565 0.021776 -0.248295 0.133619 -0.216064 -0.051543 0.191420 -0.149314 -0.026092 0.145853 -0.123382 -0.010064 -0.012848 0.011944 0.170802 0.073041 -0.010474 -0.153311 0.172992 -0.444591 0.068256 -0.046037 -0.148405 -0.017586 -0.061457 -0.186585 -0.079701 0.067945 0.079387 0.049853 0.043123 0.167143 -0.161590 0.006228 0.025429 0.097185 0.059576 0.056240 0.059332 0.198916 -0.049232 0.026244 -0.063332 0.007164 -0.189022 -0.048813 -0.186481 -0.059106 0.243966 0.104797 -0.035044 -0.080924 0.191257 0.012938 0.083400 -0.157432 -0.140607 0.037302 0.354468 0.204050 -0.313072 0.171561 0.155488 0.053366 0.190536 0.056893 -0.208910 -0.050722 -0.029453 -0.046237 -0.192809 0.045488 0.131685 -0.115008 0.091481 -0.133046 -0.138446 0.024250 0.120264 0.138530 0.066002 -0.131060 -0.135179 -0.091286 0.065472 -0.240373 0.132625 0.048243 0.168721 -0.104576 0.204443 -0.204858 -0.099568 -0.055526 -0.105207 0.039824 -0.009076 0.075062 0.123290 0.274228 -0.142494 -0.144389 -0.076513 -0.051008 -0.087205 0.060749 -0.211538 0.119012 0.219629 0.033026 0.080755 0.207609 0.026751 -0.087583 -0.021991 0.013817 0.004714 -0.016211 -0.107926 0.109438 -0.135089 0.033581 -0.094161 -0.101403 0.153882 0.148378 -0.176869 -0.079037 0.151698 -0.156099 0.128015 0.077133 0.085583 0.123412 0.278597 0.070352 0.077578 0.238162 0.228124 -0.251098 0.042780 0.057911 -0.162763
培训补贴 0.088640 0.011489 0.192083 -0.159721 -0.004481 -0.202470 -0.064788 0.052227 -0.024497 0.155041 -0.012396 0.167845 -0.171527 -0.267138 0.101542 -0.176858 -0.077199 0.346491 0.019354 -0.079622 -0.090635 0.013136 0.152037 -0.047403 -0.056710 -0.256209 -0.096082 0.008600 0.237376 0.344961 0.046727 -0.509780 -0.299797 0.075414 -0.288820 0.283472 0.147145 0.117649 0.008380 0.101941 0.052044 0.024628 0.118135 -0.284772 0.053746 -0.113060 0.086704 0.057796 0.080982 0.026591 0.207611 0.019788 0.245817 0.215818 -0.071539 -0.078722 0.123578 0.115391 0.034624 -0.330679 0.181789 -0.291208 -0.070124 0.256005 -0.197613 -0.035970 0.197535 -0.167151 -0.012580 -0.019991 0.018467 0.229246 0.097066 -0.011246 -0.207056 0.230639 -0.597642 0.090478 -0.057515 -0.201140 -0.027807 -0.081314 -0.248636 -0.105374 0.091259 0.109601 0.064498 0.058320 0.223108 -0.214770 0.009094 0.031147 0.125520 0.080426 0.077976 0.079910 0.264189 -0.065803 0.036101 -0.084403 0.012087 -0.259774 -0.068889 -0.246691 -0.076952 0.324331 0.139712 -0.043533 -0.103497 0.255861 0.019685 0.117585 -0.215631 -0.191471 0.044423 0.474317 0.276401 -0.419159 0.234345 0.213129 0.068278 0.257782 0.072977 -0.278612 -0.067566 -0.039280 -0.062458 -0.256942 0.058953 0.178864 -0.155915 0.121129 -0.179896 -0.189566 0.028590 0.164158 0.185529 0.090841 -0.175552 -0.183785 -0.124048 0.086587 -0.322887 0.179570 0.061862 0.226193 -0.141776 0.274832 -0.275892 -0.135881 -0.070814 -0.138932 0.054557 -0.012224 0.105354 0.167151 0.368155 -0.190601 -0.190412 -0.100649 -0.069915 -0.117947 0.079429 -0.283152 0.156040 0.297059 0.040679 0.109456 0.276533 0.035974 -0.114636 -0.025999 0.015922 0.006659 -0.025675 -0.143558 0.144832 -0.180678 0.049328 -0.128949 -0.141115 0.208093 0.196885 -0.237000 -0.101849 0.202362 -0.203372 0.174236 0.103326 0.110957 0.165707 0.371385 0.094000 0.104255 0.314743 0.309747 -0.339704 0.062526 0.079564 -0.220606
岗位 0.047223 0.005841 0.097774 -0.084035 -0.000261 -0.104340 -0.033180 0.028605 -0.012895 0.082719 -0.004854 0.087022 -0.090438 -0.134336 0.051505 -0.092770 -0.039095 0.180791 0.010886 -0.039465 -0.048137 0.007514 0.079815 -0.024984 -0.029389 -0.130522 -0.050342 0.003857 0.123006 0.179879 0.025142 -0.261289 -0.154029 0.038172 -0.149609 0.147957 0.073480 0.060974 0.005933 0.055135 0.025526 0.011200 0.057765 -0.144574 0.027894 -0.056452 0.043332 0.027357 0.041220 0.015844 0.109153 0.007276 0.128947 0.111482 -0.037114 -0.039746 0.064758 0.058377 0.018256 -0.172559 0.095567 -0.150353 -0.038927 0.132912 -0.103813 -0.016166 0.102960 -0.084203 -0.005338 -0.009610 0.008997 0.117486 0.049872 -0.009021 -0.102925 0.118718 -0.310615 0.046112 -0.030044 -0.103235 -0.011875 -0.040245 -0.128852 -0.053253 0.049515 0.054715 0.035599 0.030772 0.112398 -0.110098 0.007129 0.015724 0.067525 0.039186 0.038019 0.039818 0.137486 -0.036307 0.020671 -0.045809 0.003785 -0.133325 -0.034051 -0.130655 -0.038510 0.169057 0.070869 -0.024610 -0.053566 0.133730 0.009184 0.061624 -0.110616 -0.098737 0.021887 0.245011 0.145040 -0.213597 0.121541 0.107607 0.037037 0.134365 0.038799 -0.141652 -0.033563 -0.019933 -0.030874 -0.130087 0.030175 0.089280 -0.081252 0.063958 -0.092172 -0.095510 0.014428 0.081974 0.093575 0.046149 -0.091894 -0.095286 -0.063520 0.046141 -0.163361 0.095328 0.031416 0.115409 -0.071498 0.143095 -0.145079 -0.071646 -0.038173 -0.072451 0.026306 -0.003618 0.055145 0.086695 0.192480 -0.099294 -0.096229 -0.049973 -0.037628 -0.061290 0.041448 -0.144435 0.079617 0.150570 0.022825 0.057977 0.144921 0.019394 -0.062137 -0.016220 0.011082 0.001718 -0.010420 -0.076493 0.072061 -0.093825 0.023882 -0.066220 -0.072628 0.106553 0.102008 -0.122890 -0.052400 0.104173 -0.104584 0.086870 0.052284 0.057806 0.087001 0.191154 0.048838 0.054155 0.163329 0.161456 -0.171054 0.030447 0.041135 -0.115113
义务教育 0.070493 0.011772 0.152113 -0.125877 -0.001164 -0.160217 -0.053016 0.043590 -0.018522 0.124580 -0.009515 0.135004 -0.139049 -0.210462 0.077601 -0.142712 -0.060427 0.276227 0.014191 -0.063392 -0.072108 0.010591 0.125981 -0.041007 -0.046386 -0.204055 -0.073885 0.008288 0.189303 0.276065 0.036925 -0.405924 -0.240238 0.058236 -0.226824 0.230194 0.116620 0.093870 0.007456 0.083060 0.045232 0.020588 0.090494 -0.225619 0.042682 -0.089116 0.068274 0.044996 0.065227 0.022245 0.165299 0.013255 0.198411 0.175729 -0.054746 -0.065456 0.096724 0.094679 0.027355 -0.265284 0.145845 -0.234549 -0.058706 0.206247 -0.160336 -0.024910 0.156875 -0.132547 -0.009928 -0.018131 0.012911 0.185143 0.080648 -0.011377 -0.165107 0.183544 -0.481224 0.071771 -0.048948 -0.157125 -0.018477 -0.063084 -0.198981 -0.085121 0.071194 0.085531 0.051171 0.048324 0.176071 -0.169302 0.005656 0.024867 0.101311 0.065895 0.062218 0.064750 0.212940 -0.053035 0.027628 -0.068949 0.006752 -0.206319 -0.053937 -0.200301 -0.065170 0.261800 0.113480 -0.037662 -0.084111 0.207309 0.014862 0.092644 -0.169321 -0.151071 0.039933 0.380110 0.221116 -0.334178 0.185198 0.166796 0.055823 0.209298 0.056956 -0.225656 -0.055710 -0.031491 -0.047826 -0.205633 0.047530 0.143650 -0.125508 0.096758 -0.146114 -0.151624 0.021642 0.127155 0.144689 0.071154 -0.143431 -0.148149 -0.095125 0.065341 -0.256405 0.145645 0.051364 0.183847 -0.113616 0.218665 -0.219059 -0.109401 -0.055747 -0.115576 0.044069 -0.005805 0.083367 0.133647 0.294010 -0.154591 -0.151313 -0.079939 -0.056202 -0.093621 0.062914 -0.223766 0.123169 0.235990 0.033630 0.087224 0.220747 0.028309 -0.094556 -0.019967 0.012915 0.004189 -0.016171 -0.117552 0.117226 -0.145328 0.040099 -0.102359 -0.110840 0.164265 0.155519 -0.189282 -0.082020 0.161881 -0.163167 0.141349 0.082878 0.089127 0.135413 0.296005 0.078760 0.079886 0.256550 0.247154 -0.270535 0.046646 0.063394 -0.176762
专项 0.065664 0.008347 0.142454 -0.116999 -0.004209 -0.151929 -0.050877 0.042062 -0.018302 0.116555 -0.007548 0.121708 -0.129470 -0.192243 0.074300 -0.126794 -0.057248 0.258388 0.014089 -0.058641 -0.065144 0.010395 0.114590 -0.036973 -0.039821 -0.189324 -0.071162 0.006894 0.172508 0.255919 0.038005 -0.374237 -0.222531 0.055829 -0.211303 0.210282 0.108733 0.088017 0.008033 0.074361 0.041439 0.017635 0.083195 -0.208121 0.039949 -0.082331 0.065975 0.044657 0.061326 0.017622 0.154832 0.011973 0.182901 0.162856 -0.054587 -0.058914 0.092742 0.087330 0.025287 -0.242632 0.134250 -0.216435 -0.049630 0.188288 -0.146115 -0.027047 0.143845 -0.124167 -0.008515 -0.014501 0.015684 0.168882 0.069464 -0.010411 -0.153034 0.171276 -0.441535 0.068246 -0.042216 -0.148488 -0.016782 -0.061095 -0.184526 -0.078859 0.070147 0.079464 0.045764 0.041947 0.161450 -0.158732 0.009488 0.022449 0.095820 0.057905 0.057061 0.061651 0.196211 -0.048708 0.026038 -0.060946 0.007060 -0.187259 -0.048905 -0.185637 -0.058622 0.237993 0.102209 -0.031027 -0.077989 0.191825 0.012182 0.085203 -0.157552 -0.143323 0.036729 0.349286 0.202788 -0.306700 0.171917 0.156965 0.052032 0.191620 0.055496 -0.206105 -0.052409 -0.028738 -0.043943 -0.188970 0.042358 0.131724 -0.113284 0.091413 -0.134887 -0.141612 0.023374 0.117545 0.135170 0.069044 -0.130927 -0.135150 -0.091006 0.063847 -0.238346 0.133078 0.049204 0.169381 -0.103317 0.200054 -0.203612 -0.099349 -0.052693 -0.106888 0.041743 -0.005146 0.073392 0.122113 0.271766 -0.143839 -0.140259 -0.074873 -0.049974 -0.082714 0.056399 -0.209469 0.113125 0.215317 0.032129 0.081736 0.205943 0.025851 -0.087261 -0.019300 0.010355 0.005308 -0.016306 -0.106143 0.106692 -0.134799 0.034199 -0.096107 -0.104092 0.153030 0.144445 -0.173286 -0.078787 0.150688 -0.149371 0.125872 0.074010 0.083527 0.124716 0.275251 0.072296 0.076715 0.236210 0.229304 -0.245208 0.046426 0.057077 -0.165027
军人 0.068328 0.010461 0.150321 -0.123630 -0.003817 -0.157294 -0.050607 0.040129 -0.022003 0.122766 -0.008954 0.132752 -0.135141 -0.207457 0.077889 -0.138339 -0.058721 0.273304 0.014911 -0.064298 -0.070184 0.009994 0.121542 -0.037969 -0.044619 -0.199414 -0.074904 0.009885 0.182185 0.271277 0.036419 -0.399813 -0.233324 0.057473 -0.226707 0.222245 0.113270 0.089987 0.006774 0.083329 0.045453 0.021251 0.089125 -0.223602 0.039573 -0.089730 0.066650 0.044867 0.063251 0.019646 0.163337 0.012696 0.191432 0.169774 -0.052854 -0.063279 0.095054 0.088782 0.024303 -0.261741 0.140650 -0.225873 -0.054251 0.200269 -0.156069 -0.028800 0.154873 -0.131804 -0.009474 -0.016012 0.014975 0.182218 0.078253 -0.009294 -0.160748 0.180005 -0.468778 0.071093 -0.045573 -0.153701 -0.019288 -0.063349 -0.199186 -0.080922 0.073476 0.084692 0.053870 0.048340 0.176548 -0.169090 0.008681 0.025238 0.099003 0.061833 0.062097 0.065947 0.208989 -0.050896 0.028391 -0.066914 0.008406 -0.202095 -0.053125 -0.195844 -0.060174 0.254537 0.106544 -0.035667 -0.082645 0.202193 0.014004 0.090453 -0.167987 -0.148645 0.035388 0.372385 0.216750 -0.329348 0.182758 0.163589 0.057491 0.203081 0.058669 -0.218586 -0.053812 -0.030437 -0.047963 -0.199952 0.045992 0.138688 -0.121794 0.097565 -0.140316 -0.149771 0.023681 0.124250 0.144182 0.072967 -0.139436 -0.146477 -0.096983 0.066879 -0.249792 0.142335 0.052095 0.180719 -0.109631 0.215461 -0.218897 -0.105421 -0.056043 -0.113549 0.044730 -0.006809 0.080178 0.131217 0.290717 -0.152730 -0.148127 -0.082178 -0.056682 -0.088711 0.063146 -0.220189 0.120817 0.232871 0.033592 0.084945 0.217847 0.026975 -0.091981 -0.018831 0.010791 0.004573 -0.015409 -0.111824 0.114922 -0.141845 0.035897 -0.102114 -0.110802 0.161910 0.153937 -0.186092 -0.079621 0.158044 -0.161621 0.135169 0.080129 0.090100 0.131605 0.292032 0.074333 0.078186 0.248599 0.243949 -0.264290 0.045411 0.065109 -0.173891
教育 0.062065 0.008019 0.136570 -0.113285 0.000742 -0.140823 -0.046186 0.038090 -0.018493 0.107969 -0.010590 0.116702 -0.119633 -0.183835 0.070003 -0.121558 -0.050563 0.246479 0.012386 -0.057004 -0.062128 0.010198 0.110799 -0.034493 -0.036484 -0.180518 -0.066140 0.005598 0.166233 0.242108 0.036408 -0.358624 -0.208491 0.053512 -0.199361 0.200661 0.104771 0.081303 0.008079 0.073657 0.037683 0.019257 0.081114 -0.200552 0.038523 -0.076428 0.059080 0.040487 0.056671 0.017855 0.146196 0.012093 0.170781 0.154146 -0.048285 -0.055824 0.088661 0.078784 0.021278 -0.230226 0.127366 -0.204825 -0.049731 0.177532 -0.136255 -0.024471 0.138886 -0.116489 -0.005494 -0.013605 0.012769 0.163596 0.067977 -0.006651 -0.143897 0.162603 -0.418653 0.065717 -0.040747 -0.138664 -0.018649 -0.056789 -0.176893 -0.072585 0.065323 0.077929 0.046124 0.044718 0.157796 -0.149399 0.006311 0.024193 0.091361 0.054811 0.055060 0.056122 0.183868 -0.044123 0.026792 -0.059066 0.010076 -0.179182 -0.045832 -0.174634 -0.054818 0.226077 0.099507 -0.033059 -0.077102 0.181408 0.013184 0.078564 -0.149324 -0.133854 0.034532 0.333220 0.192445 -0.291975 0.162890 0.148553 0.052238 0.179281 0.050450 -0.196384 -0.048759 -0.024035 -0.043803 -0.177969 0.040958 0.123872 -0.111366 0.083561 -0.128249 -0.132927 0.020240 0.113203 0.128615 0.065903 -0.126814 -0.130123 -0.087006 0.057934 -0.227363 0.128226 0.047314 0.159941 -0.098404 0.192365 -0.192975 -0.095834 -0.053207 -0.097991 0.035794 -0.006742 0.072720 0.113717 0.257049 -0.135804 -0.132802 -0.069153 -0.047655 -0.080191 0.055427 -0.196396 0.109441 0.205182 0.031572 0.079225 0.195078 0.024758 -0.080354 -0.018021 0.011257 0.005502 -0.018829 -0.100012 0.100766 -0.129513 0.032278 -0.092621 -0.096696 0.142838 0.137630 -0.167416 -0.074591 0.142466 -0.144549 0.119482 0.075495 0.079427 0.117206 0.258432 0.067032 0.072364 0.222040 0.218665 -0.235801 0.042741 0.057512 -0.156750
中 0.071995 0.007498 0.157432 -0.129123 -0.001051 -0.162697 -0.051993 0.042311 -0.019871 0.125485 -0.009806 0.137719 -0.140359 -0.212566 0.081906 -0.139127 -0.061012 0.280592 0.013281 -0.064884 -0.070562 0.013656 0.126184 -0.038297 -0.043428 -0.204663 -0.074425 0.007380 0.191142 0.280652 0.038931 -0.410864 -0.243157 0.061638 -0.229744 0.227877 0.120184 0.095150 0.009288 0.085863 0.043204 0.022786 0.091145 -0.226198 0.040234 -0.088502 0.067520 0.048887 0.068396 0.020218 0.165416 0.016812 0.198607 0.176160 -0.055828 -0.064614 0.098681 0.092244 0.027178 -0.264283 0.145349 -0.232050 -0.056887 0.205226 -0.160262 -0.026289 0.157431 -0.133578 -0.009780 -0.016086 0.015475 0.187086 0.081168 -0.008148 -0.165912 0.185124 -0.485219 0.074582 -0.049602 -0.161104 -0.022349 -0.063730 -0.200869 -0.083184 0.073935 0.086564 0.051964 0.049171 0.176380 -0.171411 0.006713 0.027438 0.104217 0.067015 0.060332 0.066938 0.213992 -0.052582 0.032825 -0.070333 0.010689 -0.208858 -0.052586 -0.201924 -0.062192 0.263383 0.109819 -0.034008 -0.087216 0.208183 0.015326 0.094343 -0.171561 -0.155938 0.040155 0.379505 0.222327 -0.335101 0.186994 0.167429 0.058250 0.206367 0.058202 -0.226021 -0.056787 -0.029313 -0.050380 -0.206551 0.045533 0.142296 -0.126395 0.101086 -0.146185 -0.152361 0.024614 0.131975 0.146832 0.073248 -0.143528 -0.146404 -0.100414 0.066803 -0.258468 0.147164 0.053710 0.183236 -0.114209 0.220626 -0.223242 -0.111875 -0.055715 -0.112394 0.044079 -0.008989 0.084896 0.134729 0.298182 -0.156550 -0.155040 -0.080951 -0.055764 -0.090523 0.063643 -0.228518 0.128845 0.238823 0.032087 0.091021 0.220735 0.026679 -0.093594 -0.022954 0.011770 0.006900 -0.020801 -0.118816 0.116933 -0.146969 0.040083 -0.103816 -0.110827 0.165361 0.157545 -0.187874 -0.085034 0.160902 -0.167975 0.140856 0.083766 0.090815 0.135075 0.297234 0.077016 0.081337 0.254046 0.250336 -0.270474 0.050527 0.062036 -0.180364
助学 0.044110 0.004872 0.094846 -0.074999 -0.001958 -0.095536 -0.032948 0.026549 -0.014712 0.072932 -0.003825 0.081999 -0.081794 -0.127863 0.050071 -0.085139 -0.037958 0.169745 0.011351 -0.040106 -0.044981 0.008646 0.073541 -0.021507 -0.024400 -0.122502 -0.046385 0.005188 0.111978 0.167183 0.024317 -0.242995 -0.142055 0.037349 -0.135577 0.138111 0.070532 0.058475 0.006782 0.050211 0.027444 0.013634 0.054835 -0.137744 0.022770 -0.055696 0.039881 0.025438 0.038020 0.013043 0.098853 0.009529 0.120239 0.105705 -0.032396 -0.036504 0.060181 0.055975 0.017698 -0.158310 0.085350 -0.140744 -0.032867 0.123185 -0.093718 -0.015813 0.095768 -0.077701 -0.003340 -0.007686 0.007351 0.111670 0.047314 -0.007819 -0.099352 0.108641 -0.289192 0.044869 -0.030307 -0.097624 -0.014290 -0.036913 -0.122853 -0.050723 0.044979 0.052226 0.033475 0.027530 0.106626 -0.103504 0.003368 0.013378 0.063467 0.040708 0.036712 0.040077 0.128337 -0.032239 0.019665 -0.040904 0.003838 -0.123292 -0.029921 -0.121104 -0.038151 0.155810 0.068066 -0.023702 -0.049758 0.121835 0.009288 0.054870 -0.104476 -0.094019 0.022808 0.228731 0.133205 -0.202842 0.111564 0.103265 0.033134 0.121893 0.033665 -0.131781 -0.031734 -0.019455 -0.028863 -0.124734 0.029932 0.087132 -0.075088 0.057979 -0.085749 -0.092941 0.013056 0.075708 0.086577 0.043292 -0.083281 -0.088265 -0.060249 0.039879 -0.153897 0.084773 0.028999 0.107478 -0.068025 0.129686 -0.133442 -0.066108 -0.034578 -0.066188 0.024532 -0.004631 0.049241 0.077006 0.178616 -0.093367 -0.091888 -0.051227 -0.036551 -0.056217 0.039854 -0.135554 0.073630 0.141308 0.018945 0.052079 0.131432 0.015930 -0.055221 -0.013794 0.008603 0.002911 -0.013346 -0.071789 0.069117 -0.085103 0.020628 -0.064262 -0.066903 0.100318 0.094252 -0.115109 -0.052324 0.098589 -0.099304 0.082636 0.052043 0.052659 0.081752 0.177092 0.045369 0.049708 0.153325 0.151031 -0.161087 0.029227 0.039376 -0.105558
